{
  "inputNodes": 25,
  "hiddenLayers": 1,
  "hiddenNodes": 128,
  "outputNodes": 25,
  "weights": [
    {
      "mat": {
        "type": "org.ejml.data.DMatrixRMaj",
        "data": {
          "data": [
            -0.6145409577828601,
            0.2691850000381758,
            -0.9322133654310795,
            -0.5796039104443081,
            -0.9421888150928506,
            -1.8218028630953673,
            1.083873813835577,
            -0.5532961373102946,
            0.39728603016851877,
            -0.7721618306802319,
            5.1321579278211615,
            1.0144182946318472,
            0.325989823230972,
            1.5041719753939933,
            0.29793926714035185,
            6.262150875429845,
            1.6346998747733452,
            0.9215968848818621,
            1.8343756535425408,
            0.3391342533673238,
            -11.300132329299798,
            -9.637579592304592,
            1.463764996378886,
            1.5606305167196193,
            -0.1810364440856051,
            2.587599211996071,
            0.3814317719089856,
            3.685241387114243,
            3.8760551159066083,
            -2.7156598803350884,
            2.062861873297735,
            1.5062970356988408,
            -1.110438066351007,
            2.4820754924959436,
            6.499845105758507,
            0.11932810345737555,
            -2.4044729820519106,
            -0.8115928185694159,
            22.187497448106196,
            -0.7165215045915129,
            5.580204197717311,
            1.6209308319593183,
            0.764954991157925,
            0.9857423547446101,
            3.2993398746885183,
            -0.7162509153011855,
            0.570055990396856,
            1.3107675123516034,
            1.1978204339634868,
            0.17712198790290049,
            0.4373752681243039,
            0.5092588481527579,
            -1.4858425107740127,
            -0.7490485729634967,
            1.3541066441501521,
            -22.28858221516783,
            5.3853164304074985,
            -0.6792679271648385,
            0.6881980419798358,
            0.10152793905634114,
            6.524238059181119,
            7.592711738433394,
            -1.124323216633867,
            -0.2933155640884229,
            0.8117494007587298,
            -1.690970265134226,
            -0.2690176057140292,
            -0.0645063099779795,
            0.43677471109529886,
            0.5938977019087666,
            5.603584970721355,
            -0.02170781136492321,
            -0.691053812685065,
            -0.1271037460920979,
            -0.8918484174411379,
            -0.45977043687954755,
            4.589637689912887,
            0.7636947141556832,
            0.6202949728997064,
            -1.1826321654688006,
            -1.5094780013664624,
            -0.4814925470784056,
            0.33618465130697056,
            0.5199863392893146,
            1.8860635163363093,
            0.9511561481380889,
            1.1391074813248194,
            0.5840373580490092,
            -1.0025357646140842,
            -0.3172078247879332,
            1.5005725291343879,
            -3.7247108174535524,
            2.8775353613745747,
            1.3550854344765717,
            0.8093562402474953,
            5.045517005653946,
            64.39020277843143,
            2.9464101266838894,
            -1.5546780011754153,
            -0.44036151935040385,
            -1.1874083969874318,
            0.25676932115637524,
            -1.0569916033851052,
            -1.3204631368006607,
            -0.2701185105469902,
            0.7027362144566602,
            -0.4660824735317214,
            0.36211008206332634,
            0.6779213104121342,
            1.891177646936282,
            -0.8036236996862419,
            -0.4422840409999367,
            -3.268988703856476,
            -2.741995574615661,
            -3.9026118504165024,
            1.0670990655148078,
            1.4251305314564837,
            -3.4431030229324997,
            13.434697716620093,
            2.2111512356828538,
            1.7568796478898572,
            0.8223151976646416,
            0.24188172382131748,
            14.090659368578434,
            -2.2181552010964363,
            -2.069192260554277,
            -4.033380111339634,
            13.669193238565331,
            -2.6442663732670155,
            -1.4920358060719576,
            17.216275183313908,
            -2.937429193763878,
            -0.29404571999523127,
            0.36776758584747443,
            0.5106391568626576,
            -1.0600383308986097,
            -3.3206567459716956,
            0.7162686352185147,
            0.9077061323235484,
            1.4798701738400166,
            1.2710565047251132,
            0.4906349648357471,
            0.7308884257162409,
            0.5956260647925928,
            -2.4670526515499738,
            0.2416447106035042,
            1.4509972711406804,
            3.8932358498382813,
            -1.1298394375222687,
            0.20109879733053515,
            -2.3082201668935034,
            0.7706441241755884,
            1.5285704474431379,
            1.111301050604763,
            0.21705809686183802,
            3.970892318083345,
            1.2318568819237583,
            0.2879979823540338,
            -0.5994875546956967,
            1.398586032598303,
            -0.5849343426238922,
            2.1734309384314683,
            -2.783664471364349,
            0.21893220393409826,
            -0.97233946670669,
            -0.02376944278905962,
            3.616743071250992,
            4.446462163432713,
            -0.36788474460348936,
            2.0009140566921557,
            7.769994229462473,
            0.3426293680511034,
            -1.8546469697922212,
            2.992032277991819,
            -3.949982395108714,
            -9.723755524933516,
            0.08311604092699511,
            2.8170408688141126,
            0.9422298992216858,
            1.3937332841604606,
            3.8725311881640128,
            1.0657562392334643,
            -1.6195681804127926,
            0.5995374051952542,
            1.0770005018435176,
            2.2076860188464873,
            1.8665864381761128,
            0.3979563190520117,
            45.16538526953728,
            1.8078250590698135,
            4.2413630108186915,
            1.3813590048396487,
            -1.4119531541604975,
            -1.625670946958939,
            0.3029046338644169,
            0.16813362129832882,
            -1.626488865862459,
            2.4660078633973574,
            2.700287684746901,
            1.356739801931893,
            2.6850031143258923,
            0.06455775042043647,
            2.1082115857521906,
            0.9230613016843421,
            -94.11002639800722,
            2.1713471606278953,
            -0.41089968321724046,
            0.027853292417278422,
            0.7086890159919896,
            2.406820618509073,
            2.795351511548303,
            1.5094059836011788,
            2.8322236063610546,
            0.2336055854065403,
            1.854863777174694,
            2.367436425432587,
            1.647551415856112,
            3.2246358391492356,
            0.27347179454825177,
            -0.083632469920124,
            0.4745127081391307,
            2.5941520081498286,
            0.986916386456498,
            1.7536770715561916,
            1.8639203367834833,
            0.11887211742865209,
            4.28329019750099,
            0.9648090502254834,
            -0.9817153690237219,
            0.7396951533622222,
            -1.9328934079463411,
            1.5022568455227794,
            21.08891264296701,
            2.016000463244853,
            -2.977536353794138,
            0.2989232916325553,
            -0.4850809879672546,
            -3.4912211582288677,
            2.0394406883717426,
            2.9526712562500967,
            -2.453285699578887,
            2.2979164486825616,
            -1.2179224336153585,
            16.742599324297537,
            4.644994666256299,
            -0.9180687791341818,
            -1.4603281520743392,
            6.555851810506365,
            11.56421688554457,
            3.6653269464533613,
            1.1020728501630228,
            -1.443959872852372,
            -0.6186039960918225,
            -1.1199013527877117,
            1.9045964325533267,
            1.521639973205464,
            -4.094114371766487,
            0.08673793414136372,
            2.323316664030654,
            -0.7869300708550904,
            7.835385268192512,
            8.496230818995585,
            0.4080004100081705,
            3.148089559293824,
            -0.5605531264991656,
            7.937416627346589,
            7.862593763781488,
            4.818286669025862,
            7.769656711603585,
            2.2455427711297706,
            3.259636224081453,
            7.1550779456150595,
            5.819771647033188,
            3.349667487984601,
            1.972450822875496,
            -2.257604975113276,
            -0.2271232953536563,
            -0.07360552836574141,
            0.5740568678003062,
            -0.6972537042285898,
            0.14860443725361033,
            1.0127672862174266,
            0.7908070736465662,
            0.14827305915794828,
            1.45568291668891,
            -1.1437648227913906,
            0.18653214420100528,
            4.411783752721995,
            -1.5897312340305738,
            -2.2297749709314334,
            -1.4772652125489307,
            -3.7314585913315277,
            -4.927683988266022,
            42.422488881974644,
            -3.2347658040112575,
            -0.542170565579426,
            14.526980865756263,
            2.209270956865252,
            0.6550961878216033,
            0.9177952141086088,
            -0.4749116774671849,
            -1.0563405118875888,
            1.0122038288660964,
            0.5038236396495678,
            -1.1788905323023162,
            -1.349190517168856,
            0.42973001325932836,
            -0.9974702434016355,
            -0.3061833710220366,
            -1.8774976839325714,
            -0.028764787807769615,
            -2.3848909379980876,
            1.2394652104646402,
            -0.8102206669757211,
            14.02597561771619,
            2.026575975943829,
            1.0052982067354885,
            1.9697079500159798,
            0.6722869425295765,
            1.9886471253084292,
            0.6173921455139053,
            -0.3161414438971986,
            2.2399965686575425,
            57.86466900856846,
            2.9666556062219818,
            0.30796180374353394,
            -0.5939413637306545,
            -0.6792319086905783,
            -0.6530304030273723,
            -1.1020120448158135,
            -0.16472852200585933,
            -0.38974439224404095,
            -0.8018956572627107,
            -0.3248556664930353,
            -1.3719635588871615,
            7.092336271497718,
            -2.5984912382782586,
            -3.1950096908163443,
            -2.853183184567336,
            3.703127575023694,
            -1.7534122238537277,
            -5.605751213995471,
            49.5722328433438,
            -6.119230274950441,
            -1.218383074945514,
            1.5277347816383835,
            -3.3636506378381754,
            -1.3426748432455236,
            -4.810774129977298,
            -0.794042443876179,
            -0.978603582749322,
            0.6050985023202291,
            31.69537936325931,
            0.10552347884579301,
            -0.06795257950650645,
            0.4858228782779554,
            3.145600562916778,
            0.5651487171906137,
            1.3788524556124668,
            4.297842848396316,
            1.8866778938781725,
            8.799064282873973,
            -0.12359396380043579,
            0.7440739708911697,
            0.5932712260257385,
            2.3149145075245547,
            -0.7257573160809889,
            -0.46781550037228886,
            1.75584615967783,
            -0.6161561147428148,
            2.0669322559308814,
            1.647068280097535,
            1.5970869631891966,
            3.2920080068605113,
            1.4280076402537698,
            1.2812894087195286,
            5.2781438461363495,
            -0.449158733829038,
            1.1166573263183965,
            1.396076385417283,
            1.7239288700356636,
            1.1366642598024221,
            4.090170239748432,
            -0.2839236067227806,
            16.280977254335152,
            -0.8961704488424144,
            0.19186521978343496,
            -2.374847023838742,
            -3.3134158252523465,
            -10.624771596804946,
            -1.3116595225655714,
            0.3096685381712022,
            2.2665191787145194,
            1.8165839824159558,
            -0.3493453782944675,
            0.30376495493939987,
            0.4320628791768739,
            0.1313829208214176,
            -4.277714656993957,
            -0.841523635817304,
            -2.405907511651756,
            2.423050498892751,
            -0.5865289873867474,
            0.43094666652247854,
            -4.061162717113692,
            0.3143438548387254,
            -2.3852941482315,
            1.1246753846276643,
            -0.6832194013081472,
            0.008577638357069895,
            -1.0360513481224178,
            -0.7113674456001922,
            -2.1921416940892713,
            -1.2645294331635297,
            0.43701414373819547,
            -1.0014241851453691,
            1.582789127129291,
            0.05024517515418353,
            -0.9671930374452073,
            -1.1095808128321403,
            0.13322588918482342,
            -4.94348336804222,
            0.7921419841687662,
            -2.102072973115217,
            -1.3132083428889043,
            -0.6474661627973677,
            0.9350912042453382,
            -1.097769870911115,
            9.087639620706042,
            0.8420869968117584,
            -0.4859276758664315,
            0.7626373899347928,
            3.824216936524348,
            2.277844104322519,
            5.335401265192104,
            -0.7605719056264321,
            1.0153977808905592,
            1.6824919935805227,
            38.94762182922256,
            4.830140207367189,
            -0.8121541658843177,
            2.3612196353494537,
            1.6696958275702767,
            4.058123231032151,
            1.3597556272231608,
            -1.0836409769268378,
            -0.04812759807774014,
            1.064262242294152,
            0.7541925318422581,
            0.813799857671708,
            1.596229723265807,
            1.3357925448821424,
            0.6323216333934631,
            -0.7408354976002021,
            5.088229412991514,
            0.7540379775341699,
            2.647294021444216,
            3.7391829002839483,
            -0.46010907100329845,
            -2.0760876479427983,
            1.6513656246065138,
            0.14769311455741801,
            -0.2625682823146464,
            2.2195544768790447,
            -0.003953379066371167,
            0.4187897005781354,
            0.5335603302586223,
            1.0897983923817374,
            0.946438255236955,
            3.487397012761698,
            -0.09290128811400353,
            5.7904936966515566,
            1.104270985426556,
            2.500245258594758,
            0.2377471111219663,
            -0.3063544648964557,
            2.446728987415918,
            2.5618291820663193,
            3.0191061314357257,
            0.8886555953266468,
            3.4602162296474095,
            -0.37816588221205655,
            -1.1514044698977162,
            0.42283168115219033,
            0.6009666698292331,
            2.92122852983834,
            -1.6809730933902414,
            23.670442194001122,
            1.8924440418364281,
            -1.3006293292107958,
            1.9290330641579811,
            0.03823839632486866,
            0.5591225573612184,
            -33.84426436224331,
            1.9810444277417316,
            2.9108680985477737,
            1.1176854702904961,
            1.071719202416037,
            3.83781839854043,
            2.4848371280845627,
            -1.1958902759087473,
            0.18134175631283936,
            1.8931936995825245,
            2.2644137773675803,
            5.344658752162704,
            -1.633226411061502,
            2.426717704860584,
            -3.1204912351556535,
            2.449351891533786,
            -4.620463432075638,
            0.15231943494251,
            -0.6960346540020561,
            -2.2367459784571855,
            16.02297641867713,
            0.7007329543512821,
            12.568733549684882,
            0.7518143983417039,
            -4.901577400216521,
            -7.786616839864846,
            -1.2920032583377905,
            -0.10862311798558831,
            1.068312992933603,
            1.5612293443457625,
            0.4419045614017199,
            1.8406533824367428,
            -1.226578253771372,
            0.5615595119655926,
            0.7990645554416934,
            4.791361906335359,
            5.425112863293849,
            -1.3848111456637264,
            -0.2619732506201181,
            -1.236669566367819,
            53.489193292642874,
            3.0889759364664537,
            0.2878851493707823,
            0.026847180458370697,
            1.216604129634128,
            5.779858469829658,
            1.038990321774109,
            0.4358544328131701,
            1.5749269148611702,
            0.30327681561355707,
            -0.2485712102065997,
            1.8305884875913192,
            -0.49118137835926867,
            0.1599428809982514,
            0.6026913006734279,
            -1.1676166026645882,
            -0.14558284486956918,
            0.091448844689514,
            -1.509453057709816,
            -2.023968135735092,
            27.943736474351976,
            -1.842418114345598,
            -1.843240612082078,
            6.306130854984206,
            2.6014310189176104,
            -7.596032172529557,
            -0.4428490391423336,
            1.5026406079975134,
            1.2385097560775549,
            -0.14330766170157835,
            -0.7494969431223106,
            0.9521844868553422,
            10.820241115651605,
            -0.6366908784258192,
            -0.9480404803521558,
            1.0100840872707348,
            2.799600710217296,
            -0.865965293379247,
            1.3743177396713941,
            0.020515503537732148,
            0.31157369433947923,
            0.28082664172978444,
            -1.5512679757601278,
            0.15480109499145167,
            0.007037741168783552,
            -1.2056891772329912,
            -1.0757506485882273,
            0.9924171137809671,
            -0.48488328136454156,
            -0.9693331121783606,
            -1.5573255336230356,
            2.250473982957305,
            -0.16087718172886675,
            -1.3552049499064507,
            -0.7700306662584657,
            -0.475184334711945,
            -1.8311404347369384,
            -0.5018406467731853,
            0.7274980459145969,
            0.33577779727383655,
            -0.12161699730896999,
            -1.4229584185747315,
            2.0325072834855833,
            0.8019432219928718,
            0.10683303171134953,
            -0.6506332216858131,
            -1.2322999981430207,
            1.4906907854746343,
            -0.05785258444048214,
            -0.10595018950720113,
            -1.383275845432725,
            -0.5213443519769935,
            -0.628541921899463,
            0.4639476505169256,
            -0.4684637335066455,
            0.20070902265900994,
            -0.5709512935133847,
            0.7353384861064788,
            -0.7856763517120613,
            -1.8774377770250172,
            -1.0670947916398772,
            -1.8991428005835158,
            1.1470756790253,
            0.6627449812240136,
            -1.0707553607678244,
            -20.863737308152036,
            -10.87476327138727,
            -1.990791086709277,
            -0.10297554085434307,
            -1.3935674150167834,
            -13.481686586604775,
            -10.949788876015795,
            0.920364153361396,
            -0.7658497029101785,
            0.6410558675657759,
            1.9592041740599297,
            -9.465572302049397,
            1.5843464842898742,
            0.6406003236413158,
            2.2449717384327186,
            1.6021958910888159,
            -16.941686165904883,
            3.2680351251495554,
            2.151231741537413,
            0.007207565084281176,
            -0.9624642749509031,
            15.855469324693013,
            0.959384256066383,
            0.9574084138326523,
            0.0980705237392919,
            0.6268142303395001,
            -1.0464689415385349,
            -2.6436392373553304,
            9.933001287351903,
            0.31438321938071123,
            1.5518253355364808,
            10.33871634885666,
            0.2140535547283167,
            -7.313040338539521,
            62.5836941444726,
            -1.3089418761131977,
            -0.3836870172776656,
            -1.763250614708848,
            -8.547489714754592,
            0.19778943633131021,
            -0.3901256985992905,
            -1.3383529281661823,
            -1.5406870451505033,
            -1.511262258408284,
            0.616613371565162,
            -1.3022021630669698,
            -0.9717612656218816,
            -1.913607080302322,
            -1.3474508024160594,
            -0.9361162218648358,
            -0.10331419687539638,
            0.30090717641277537,
            -0.4008214805541505,
            -3.538226409441588,
            -0.3798548775851392,
            -1.25762559725763,
            -0.09367875352672131,
            4.203878735027349,
            2.1183697556920658,
            1.8507696748884672,
            0.858744946576584,
            0.7694977736353927,
            -0.06179594033348298,
            -0.5118797042298524,
            -2.1538300118906224,
            0.8406379335040739,
            2.2096769235344706,
            2.062474467139891,
            16.87148820951057,
            -0.6012957035342383,
            1.7909125252603941,
            0.23018724786702122,
            -3.0955889404565546,
            -22.189786386547194,
            1.262281455800012,
            0.9017678522790031,
            0.3616195536975406,
            -0.6544913457545957,
            -2.0472754172196628,
            8.002603809847677,
            -0.062144412830298625,
            0.0133797099149737,
            4.416539022671632,
            2.0746626998762667,
            0.5278804171871323,
            0.6001609795242042,
            0.959555213785131,
            -1.9477747569459443,
            -0.657576408860449,
            -0.5284326794959631,
            0.6793861618189334,
            -0.07878359861759011,
            13.277688775575413,
            8.747816605267111,
            -1.9477572212546714,
            0.7551676129727524,
            0.26494935945507586,
            13.375239124998252,
            25.003203762402777,
            6.058576461704081,
            -2.5159167267132627,
            1.2347088703169484,
            7.44558400431874,
            12.707534000834396,
            2.087293457505122,
            -4.351972567896567,
            -0.42324460151501636,
            0.6597509399672532,
            0.4848434063431392,
            -1.3100169790228258,
            -0.20444440138213077,
            42.3287392904308,
            0.46597137108468945,
            0.5721610599871287,
            -0.6085172083573638,
            0.57285072394709,
            -0.003343363386724265,
            0.50862111948198,
            -0.29616788135466876,
            0.1824556017505257,
            0.4252260113722192,
            -0.8408072656360022,
            0.8771963320876645,
            1.054803243486729,
            0.5560420599746851,
            0.3511957659409744,
            0.501238035469534,
            0.22844893422960344,
            1.1598519537622178,
            0.5337123271820848,
            0.06680239331432677,
            -0.10180499312980841,
            3.021060365156032,
            -0.11802917160172566,
            3.372395906371093,
            0.22550128465072727,
            4.559097729471351,
            0.49498352962635844,
            -0.39629776909024966,
            1.4396934371599663,
            -0.3342517580680145,
            2.1143768810821766,
            0.12026241789968085,
            1.427827251235236,
            1.9116939903817167,
            2.9146260840173444,
            2.196789617733512,
            2.439284686512898,
            1.4732255985479037,
            1.4265378473770511,
            -0.326226492917202,
            0.5709838840254872,
            -86.86017308785526,
            5.643485964572485,
            3.0895895007301704,
            1.41435635065806,
            0.8888270094899101,
            2.1928085516236147,
            1.368163495094623,
            2.6962323190868553,
            3.4234143805037234,
            -2.1459090440440196,
            -1.0607458469438096,
            0.8578096877678009,
            0.27696526676628674,
            1.4060823078165676,
            2.8860325293606195,
            -2.3337715792354654,
            0.9010647198145797,
            -1.029858735709245,
            1.078179378723417,
            1.4493109153564163,
            13.919361691653497,
            -2.41934050034655,
            0.8304190476864254,
            -1.8654543468036555,
            0.039908620459991516,
            -2.5229275420544077,
            0.7182200375867827,
            12.5390350348086,
            3.0605273408789087,
            -2.7840589777241176,
            0.006750203007236652,
            -30.098671924206233,
            5.632684882942291,
            -1.9986584026574767,
            8.96874038358982,
            2.1625754161139286,
            10.645880434190934,
            16.247209198641176,
            -0.020720801699119676,
            -0.47283702285182594,
            2.0351605695575716,
            -2.2772987582463435,
            -1.463863826864782,
            0.7587790993340443,
            1.5943419182689875,
            -0.920938387383752,
            1.919122947904917,
            2.8976402342468277,
            1.0431776588709427,
            -0.31305212668601645,
            2.0659477493075467,
            0.45425674153404666,
            1.4620744365032114,
            1.5228242970325874,
            1.5969457496650363,
            -7.1732543095190735,
            1.1081296485983818,
            2.800250444035472,
            0.7618778792151686,
            0.7018103269749506,
            1.2335519630823921,
            1.4050678849197424,
            -0.13849731661507114,
            0.6940792554096874,
            0.5019215071119486,
            0.6061723387276717,
            -0.5041256934622456,
            -0.6466830403745318,
            -0.21235688225574206,
            -0.5619549538793996,
            0.7071346590845352,
            1.5130314021450206,
            -1.220619048026937,
            47.578281151015254,
            -0.4339578873938871,
            -0.3045283739089566,
            0.24775068354761584,
            -0.8019523794321838,
            0.6760552527248127,
            3.6787315380327392,
            -4.930428783055197,
            -0.12437358535114881,
            1.304800689908893,
            1.8715627540235422,
            0.987777937560132,
            0.309048354948933,
            1.6255988988062242,
            0.21925379495439448,
            -1.23323416791058,
            0.5281707925593039,
            1.7644611029677606,
            6.45022810387948,
            6.120221133182651,
            -0.1667117062537326,
            1.4767193798547098,
            1.0576985181576941,
            4.44732175774097,
            1.6652881778220767,
            0.49413696853302835,
            3.1647351568041335,
            -2.8700924650978985,
            1.943999946355329,
            28.02990793063938,
            -2.4068713121371967,
            0.23609456652195232,
            -0.40379655409182097,
            0.8466738221174321,
            -0.18776678400989744,
            0.28310388091110616,
            -1.485844430631471,
            -0.20126056469395842,
            11.060429255609904,
            -0.7748487264060101,
            0.5128929819632706,
            2.0493874943161305,
            -0.379433627572598,
            -0.5400705507720267,
            0.5348099741863243,
            -0.6632667137188731,
            0.5026191265990912,
            -0.7311325383048376,
            0.3774120934331413,
            -0.7599686457808925,
            1.0255626578119879,
            0.6839595110066882,
            0.8886129123081319,
            1.3508050113526318,
            0.27837327126051875,
            1.4504597296589263,
            0.7471308432401765,
            0.01192154347580171,
            0.8735699979263165,
            -0.4123997047251461,
            -0.3158111912727685,
            -0.07311019031505848,
            0.7772973470335853,
            0.6132449067455964,
            0.5716737103970991,
            2.0688060258272727,
            0.2523431545314299,
            0.004837329942524836,
            -0.3481667474743125,
            -0.46950340730036927,
            -1.3602482726792613,
            -0.31591816256069144,
            0.3657144989677313,
            0.6292258699953361,
            1.9959106311016797,
            1.2554947600231405,
            1.2967334609523755,
            -0.3596711992194159,
            -3.3177505771443143,
            1.324797362536944,
            30.49048110781313,
            0.8144057940517567,
            -0.1827838035570123,
            -0.4763518428067075,
            11.52576417060227,
            1.2240919452687258,
            1.099702864833351,
            -0.4998934243557113,
            0.11595979340722007,
            0.3370821992005038,
            -1.6938066114462464,
            -0.14547365321700037,
            -0.3003984082636848,
            -0.7574392650465528,
            0.17987255663348367,
            0.9800600260459545,
            0.19482060452945832,
            -0.5690296644748286,
            -0.3090861802573616,
            0.5331201473877306,
            -0.4485581707675233,
            2.043334773317774,
            9.863321748704985,
            2.4802260526233755,
            -2.137679821044366,
            11.913880216230833,
            6.113856001905756,
            -0.7092041896171098,
            14.381801759310525,
            -1.5089390221579309,
            -0.9797980334355643,
            1.2594595899854262,
            2.6618815022201807,
            2.0357254252202934,
            -1.6421564376806406,
            0.20154897988762863,
            -0.005073191649806923,
            1.1300990068733527,
            -0.2237732623151826,
            0.1754548309508211,
            0.4140657019588494,
            1.9195627449155432,
            2.403256860775165,
            2.7843107859283016,
            0.041860073045236035,
            2.497472210308137,
            0.826665815247791,
            -1.4460520595134871,
            10.122881527321544,
            -0.17383600862539617,
            -0.6998834686361272,
            -1.1557731115727414,
            -0.29285416588793095,
            -2.217607592819067,
            0.13935496518421422,
            0.8049892904655214,
            0.14172562578648076,
            -1.079208242152874,
            -2.1449085440892386,
            -1.0357614877913557,
            -0.7432036502492196,
            -0.6824520479741853,
            2.6106683498245595,
            -4.498169536021759,
            0.5467031937181734,
            -0.6961140627272597,
            0.1605784742298762,
            -0.9718721601406438,
            -3.880126200189987,
            1.8629299438549123,
            -4.46145224559751,
            -0.0037971203262117804,
            0.14282102552892373,
            -0.21102895532226806,
            -2.9529824709110692,
            0.9139112834665808,
            -0.333845646606956,
            -0.40850469997155014,
            -0.742884630687715,
            0.15204187482561116,
            1.653859672941116,
            0.1235777117404431,
            -1.3823574524342348,
            1.0570294189692286,
            -0.4774913888151259,
            1.679532673484663,
            -2.653177185046916,
            -0.06525306191385061,
            -1.2612890223027187,
            15.15766970335211,
            -0.1334582174260354,
            -0.8186598989018193,
            -0.1737953893666167,
            1.4163830705585343,
            0.5435414171548598,
            1.579502024333979,
            6.584818224300719,
            -2.055112872967627,
            0.8639787529443912,
            1.5279784821567293,
            20.8008947503206,
            1.7458015004965695,
            -1.8258016502824679,
            -0.5879352679323204,
            0.5734807271293184,
            0.13664594440375988,
            -0.6952153630534954,
            -0.08171035720538197,
            0.27782354209297927,
            -1.1904613492532576,
            0.5166197230797227,
            0.20355349278027332,
            -0.3542036513181804,
            -0.5058215260385066,
            -5.808322522549681,
            10.521152622010005,
            1.45544365002139,
            -1.3359625313170942,
            1.7901081734910047,
            8.568791533982102,
            50.81336927489786,
            7.677885906200489,
            -1.948778146557708,
            1.3835913659690575,
            3.2176877340992145,
            3.887046820742542,
            6.647866332926572,
            -1.8711968996174229,
            0.5909275482204711,
            2.434208357005424,
            2.0703676444666304,
            -10.53552098858975,
            0.4528815320318238,
            1.4224396665784598,
            1.8405614492923725,
            0.3116720042207874,
            2.503405709068549,
            0.9570206713426853,
            -0.8359866277468617,
            -0.5122627277901998,
            1.5446757456936664,
            2.8385384883536906,
            -0.8092646130493145,
            42.56071269430768,
            -0.7606673238417894,
            0.8256091743460908,
            1.024401834507247,
            1.0337475594069059,
            0.12922291720381945,
            -0.7343743101353334,
            1.8529023025104863,
            -1.1927276621951337,
            -0.25125182604013596,
            -0.969151256924033,
            -2.9227361625172583,
            -0.6873278307525423,
            -0.9931496172701532,
            -0.6192943162571124,
            -2.828815512220507,
            52.62988921461777,
            -11.717674322118116,
            -0.6912310578900375,
            8.585850379870289,
            -2.1601496972264838,
            -2.704754254544339,
            -0.5240619302225231,
            1.135529582838849,
            -0.047709986828961534,
            -1.1376107137900227,
            0.2916637752556534,
            0.42953724255535086,
            -2.1761207569725443,
            -0.25204231101885605,
            -1.4776168245844075,
            -1.8313003791736147,
            -0.957315057917534,
            -1.201980661834879,
            0.7860043301692268,
            0.19765225965328012,
            -3.042129816535302,
            1.281121148046046,
            0.1650334895416573,
            -2.323664137602998,
            -1.772688176325851,
            11.100024285999107,
            -3.660358279231831,
            -2.0445365048220543,
            0.035702939730383104,
            -2.545040146502754,
            -3.746108797526132,
            -0.2734241883925714,
            -1.9501237725604166,
            -0.22438022382949535,
            -1.5957315118832904,
            -0.05717543990430978,
            0.09477485777936236,
            -2.2153724026061257,
            -1.5132948055911402,
            0.2976812035733562,
            0.8506344327281194,
            -1.7230264880746782,
            -0.6139358541977022,
            -0.37233341591420727,
            0.5072626012052849,
            4.07031226398594,
            7.19782406188536,
            2.2960180893098783,
            2.6978438111620293,
            1.8495237018910495,
            6.376837879043396,
            5.436043361332056,
            3.4214817436141587,
            23.276941169343065,
            -8.364844941165963,
            -2.704195833129667,
            -0.6868623275800764,
            1.3184133863385428,
            4.584066640221323,
            7.861891238592892,
            1.7399729321505017,
            1.6015828644616075,
            2.5410597430226347,
            2.8735272700554604,
            3.1685185540622065,
            -1.1151459900379836,
            1.682527373272168,
            -0.1459820635558345,
            5.035027446570099,
            1.6529355284501375,
            6.493686619118065,
            1.3547451492198208,
            2.6457600846227414,
            4.09976057391987,
            -1.0485336417469275,
            5.566549066498829,
            -8.266550179894686,
            2.3253841235942145,
            1.9082928775854526,
            -0.273714127198893,
            6.817635990486192,
            -10.43997744493826,
            1.3876259607365042,
            2.0695380139509916,
            0.06974500951618424,
            3.4405401017520494,
            0.748472658801197,
            0.36275880397273536,
            1.762290767088411,
            3.8977929806909253,
            16.90614946431214,
            3.886555906581623,
            -2.440539043892968,
            0.11256528175963054,
            1.8276773289444925,
            1.4979103010975472,
            2.689934693579713,
            -2.7180547703338926,
            2.7845506325239433,
            1.4028769714939908,
            1.3620847056585124,
            1.1786037180669016,
            -0.7575898809535899,
            3.1335047856697487,
            0.029848256358030206,
            -1.2634546657638215,
            -0.8099186114483921,
            16.534976386214392,
            0.20537836457357503,
            1.0981506084096293,
            0.5897258249814444,
            -2.287825571660088,
            -2.82156594510675,
            0.25832906833990793,
            -0.41778491958693825,
            1.1408500342858048,
            13.485307677035287,
            -4.184621803680057,
            15.498276003469183,
            13.697161580795209,
            1.9379417588984964,
            1.0938667768952772,
            0.4244597807569396,
            14.372005213052034,
            50.015635679482905,
            3.2553918227680874,
            0.9646018961261185,
            0.2764970516783317,
            1.2339238291857473,
            4.718738514294312,
            -1.583527505154287,
            0.7888072651247326,
            0.8562117021227842,
            0.764776249209848,
            2.68064098418753,
            1.141438164009763,
            0.9146839879113647,
            0.37316291409703767,
            -0.11541690141337659,
            1.2571995697487985,
            -0.019482341771349634,
            -0.15870078087349707,
            -1.47086412162727,
            0.22245425625142526,
            -1.0230052215900554,
            -6.312878280202562,
            0.14559104762625585,
            -3.33002113012201,
            -0.39793058117229485,
            3.673557798232845,
            -3.900322565052654,
            -0.8172607456299107,
            -0.8639112167518465,
            -4.16228958014324,
            -4.3812590317339035,
            17.821740375678115,
            -5.262882539930101,
            -3.6794646821481525,
            2.4818889329807265,
            3.258882449073743,
            -3.8865341147464827,
            -1.314679611609391,
            15.372883144463128,
            -2.4447375015755686,
            0.23543139825936568,
            -5.611690549632689,
            2.2909657104674035,
            -5.376108633129682,
            -2.680364912252033,
            -1.0291073848649563,
            -0.3914926666764935,
            1.2207062786932918,
            -1.540180105673256,
            -1.8968601764614192,
            0.22188753034517186,
            1.0527142969385037,
            0.19794514000169372,
            -1.537096356029404,
            -0.488503995424228,
            -2.212510021044562,
            -1.5007343868757648,
            -2.416854941165408,
            -1.451906689775348,
            -0.7534446392870964,
            -1.8395215213806055,
            8.638011431840834,
            -1.4575434879841431,
            0.3480158272377375,
            0.2677482662156448,
            0.5532885144867677,
            -1.44256885271698,
            -2.921783725397043,
            0.9628728914363696,
            0.8884367119429749,
            0.6494169610516174,
            1.1665453012363112,
            1.221601791728156,
            0.6143724206784992,
            1.5582494285793707,
            0.5441767801500357,
            -0.6344506859913125,
            -0.17892246464678715,
            1.74186645041639,
            1.6879001562493308,
            0.07925096107177869,
            29.09183054332966,
            -0.8747246328232777,
            1.1631532443079788,
            0.41052786460034707,
            0.2689995070533842,
            0.33559233437359165,
            0.21755148592629991,
            2.0502712790817417,
            0.779903163967143,
            0.7058321002130707,
            1.471424454135664,
            2.0917064827632736,
            1.5983913156963159,
            2.989674251288922,
            4.617059238524104,
            -0.8421083831570594,
            3.135953444790053,
            -1.4348877236197164,
            34.79730373457632,
            5.229053738212667,
            -0.31157065755328,
            0.8374983162323061,
            -0.12812959116698597,
            -2.1351996803721662,
            6.084857340746304,
            -1.7441360454156143,
            0.7629675832209918,
            0.5989697464130284,
            -0.7321031215692315,
            -1.672190232821526,
            -0.2208422622484675,
            1.4083666827614585,
            -0.08811654874225797,
            1.0807210746752738,
            1.0465714471974643,
            0.007226407924242728,
            -0.2816727706264632,
            0.521925604760691,
            0.5338212564790152,
            -2.7923962170750083,
            -2.9976448217049487,
            -0.5758479617298419,
            0.08685902678264025,
            -2.5302232775100446,
            13.734599981787058,
            -2.821592102545153,
            0.24221524209071846,
            -0.561520615521552,
            -3.6325220541606247,
            -0.963710686643319,
            12.141756446558817,
            0.10593600517641451,
            -0.7646730684974719,
            -1.6178815950652523,
            -0.6782851893532664,
            -1.768093633318728,
            -0.7231134657633281,
            -0.9722813346411592,
            -0.1548026638999638,
            -0.13727478358449915,
            -1.627820846970993,
            1.708175087066294,
            0.31972060046051465,
            0.03896871277108732,
            -1.0954777532090705,
            -0.3962509438713292,
            -1.553526489177706,
            1.687587764116558,
            -2.014701890581316,
            8.009000449804697,
            -0.044926636283424505,
            4.369245566292835,
            0.12523677408390488,
            0.09225291208461554,
            1.375256144712087,
            -0.2536847972517227,
            -0.8816676027128426,
            0.9826033589945904,
            -2.66838967336344,
            1.3975442080830673,
            1.7010088856171603,
            0.9214147582924415,
            -0.4781438897359606,
            -1.5258380774984825,
            0.592399624790652,
            0.025940724642477053,
            0.25678885901291426,
            0.9163562684348321,
            3.5963145913731394,
            -0.9085649393615239,
            2.2219826358443644,
            -1.2288709910289388,
            2.2561648822156193,
            -0.5855327822527808,
            -1.9227137921540698,
            -0.8516969782918971,
            -0.9296700717608147,
            0.5205606361833837,
            55.37208744568833,
            1.863786300106693,
            0.26858919928921926,
            0.31939513119906526,
            0.4325431543461435,
            0.4211377314492387,
            0.8558490032701913,
            0.8541533027493523,
            -0.4479028941417124,
            1.1874634961565222,
            1.1258507603974435,
            1.1213653628884241,
            1.2357290508037921,
            -1.473765921164268,
            2.2458787104591775,
            1.9061736420173712,
            2.2400832835762463,
            33.230488854844246,
            -3.511843850348859,
            -1.0205797966021601,
            0.9302770897126362,
            9.428086257958496,
            -1.773586797069247,
            0.6691223557911923,
            1.2236812947096445,
            0.08742182962776479,
            -0.43811169489878743,
            -0.7982985713666435,
            -0.7978322791142555,
            0.3890446934206078,
            2.250891629702329,
            2.2001591348687395,
            2.190040199254556,
            1.056621649021005,
            1.9177495530071236,
            -1.7540629469504356,
            -0.1313618001342357,
            0.5383549675852617,
            0.2807612967724709,
            -1.9852817444713489,
            0.14503114380516247,
            5.488689407584467,
            -1.4784009001201353,
            0.5325228306569713,
            1.4965046375621034,
            0.5832035900858628,
            5.605369909581406,
            -2.2944026718085317,
            -0.41874602169975794,
            0.5710347321593932,
            2.9392383762033036,
            -1.495573278270755,
            -1.4445040575302548,
            2.1725324388837195,
            -1.4687433438078699,
            -3.3943725576524346,
            2.4155811097888606,
            4.185461410129599,
            1.5935351827486424,
            0.03433841421436417,
            3.556041582823814,
            -1.5636623867502455,
            -0.1367764553845109,
            -0.9532080660349834,
            -2.7910946249263744,
            1.8294919957417923,
            1.5082834899327089,
            0.9848451727767727,
            -1.2307149587455875,
            -0.46890016810325963,
            -2.6801702801188516,
            0.3234271601118364,
            1.332134524310238,
            1.6627011421551892,
            2.5050265308094866,
            -4.2487577715312455,
            -3.219121763888648,
            -2.268088037582441,
            -2.869215989553222,
            2.0388962627288816,
            -1.6948333383401262,
            17.447128776950148,
            -1.259529836314912,
            0.4833405345225139,
            2.916951850118479,
            -2.2272680350096943,
            -1.809996950051697,
            1.017293441647628,
            3.9795086412144887,
            0.024827576125765312,
            0.17274729907722522,
            -3.7216971017693528,
            -1.3137549783034392,
            -0.7860835002014838,
            -4.279157466223051,
            0.9376600932330224,
            1.6768793492629779,
            -1.272532049336237,
            2.5456242884985274,
            1.1975735580678508,
            0.34270742930106546,
            -3.2091821252171213,
            -0.09489487826689304,
            2.8749736751253843,
            -2.6732868699342416,
            -0.21766217917366698,
            -1.248294067583929,
            -2.915904839943456,
            1.4627956746956536,
            -3.791456504991781,
            -0.9039608612495893,
            0.17643556496367063,
            -0.7011117603407532,
            -2.169583105206101,
            6.516927320695751,
            1.8702590167113495,
            -1.0133839822173354,
            1.323604981830105,
            1.5969223264568384,
            0.2052584594877544,
            0.10736248762042529,
            44.281268373174896,
            -1.0570986796038833,
            1.2684361410855782,
            1.7006823628302628,
            2.156114186061445,
            -1.7294906043230607,
            -0.11454045378586847,
            1.4993926851630934,
            1.6729105038919352,
            -0.3155717157545843,
            -0.21600312368935973,
            0.9730948372699567,
            1.4972345019345483,
            1.3412634253726954,
            -1.078099697166392,
            1.2394704309075506,
            2.853370319956391,
            2.2994645513967202,
            -8.66446794266708,
            18.95111550582431,
            32.49026935568697,
            5.78404932102935,
            5.601588129005949,
            1.245298319116309,
            14.847530878238821,
            6.120627861249826,
            10.965941399657114,
            -0.08203849776472086,
            0.3170306768842557,
            7.234938626936862,
            -4.760636776870196,
            -1.1057488822933235,
            -0.715828235441845,
            2.699332836647415,
            0.8370883212339728,
            -1.6001751880919477,
            -0.951884461926065,
            -0.8242072738818256,
            0.26668686420595156,
            3.0265302771807976,
            0.9948641175477079,
            0.7235291892586119,
            0.15539349409271316,
            -0.3279201199545352,
            65.43814204695133,
            2.394943656925476,
            1.2617186666947835,
            2.0641018262071684,
            -0.17402356521940834,
            0.21745520660642237,
            0.28636127463859945,
            -1.7982879783195498,
            -2.337657213864481,
            -0.4194851314079943,
            1.5233365016162985,
            -1.2709930871963004,
            -0.5610742304704551,
            -1.7634232681177353,
            -2.151632784352431,
            0.7017695272477746,
            -0.0632353902590188,
            -2.99310639425297,
            -0.23427989596691873,
            -1.2628973710671412,
            -1.2152512912028006,
            0.6333315062968302,
            -1.8336742489963909,
            -1.6503631429663688,
            -1.6637985715431354,
            1.20677143783761,
            0.22880799057148968,
            4.234058694184625,
            2.9641788199976578,
            3.8289660908466576,
            1.3462016202047762,
            -4.199748369457624,
            8.71684906890792,
            5.2290981457201005,
            1.905029729734458,
            9.943494852944994,
            4.477354326809761,
            3.07377314295055,
            6.18214078959878,
            0.8446863939959832,
            7.700055196786555,
            10.669063286249935,
            3.1444067239706817,
            -0.4823996507652563,
            2.4902601958151513,
            10.032692676751468,
            10.008876341015716,
            3.8538021807223535,
            -0.0175990082217575,
            -0.6513114614276246,
            -0.5684991363463191,
            -2.4684017986204143,
            -1.2833450732700245,
            8.457830831138692,
            -2.404765669639288,
            1.6361654221926958,
            -0.9963911916250748,
            3.472137308384754,
            0.8983370684676394,
            -1.4849579428552506,
            -2.955280943021393,
            -1.5706672950897562,
            0.4509214902576502,
            -2.149748094415556,
            -0.9578198429459548,
            -1.0014102017446116,
            0.2996166017050846,
            -2.256217563640459,
            1.0927256412911612,
            -1.1388664824876604,
            -2.137453401421847,
            1.9749000355282809,
            1.2535619369901962,
            -0.7989638644499234,
            -0.9414536757998306,
            0.3202152877228393,
            -0.20082734773094293,
            -2.2075088676977233,
            2.069824007124215,
            1.0592895551771497,
            -0.21270288923504554,
            -0.4446511704895101,
            1.7017827065721696,
            -4.35197770015654,
            39.970202103598794,
            0.9058285630005622,
            0.16601872795908718,
            -0.07397870222625053,
            7.728017825884293,
            2.1997661118683194,
            0.3638314776467592,
            1.8735285828774912,
            -0.5865295473900585,
            -2.7353738204110667,
            11.770793807415451,
            -0.7439216083762193,
            0.4878774371992587,
            0.24841224324626987,
            -0.3945850998332891,
            1.4138185275519934,
            4.5111038872094245,
            1.7102223202602618,
            0.41541381309647274,
            1.0548817433059092,
            -1.463216027472897,
            0.5173523489317814,
            -1.5706364535093815,
            0.012711116005780121,
            2.279738644564229,
            0.615294571567775,
            20.09748071769511,
            0.07546006153232894,
            0.203658551857929,
            1.3497888442205552,
            0.2977585665521113,
            -43.70188731255371,
            5.766302486652249,
            -1.626969851196436,
            3.409698123292214,
            0.19357079843139316,
            2.4267725618280847,
            0.9821722946107689,
            -0.3494472222057694,
            0.5140741667053714,
            -0.9158633210140948,
            0.21311848916951767,
            -2.271322390197829,
            -0.9741434702115578,
            10.757101320001096,
            -1.9941629160959882,
            15.183938806229952,
            0.5647469503365479,
            -0.7607690818220241,
            1.8578964916260128,
            2.046230114055728,
            1.4982787233585864,
            0.8509733658412281,
            1.4455434863488588,
            -0.8639570682433386,
            -0.4601608805083727,
            -1.526804046818245,
            0.6653830951588982,
            0.5760048108503714,
            -0.07511476543338406,
            -0.6374204029274302,
            -0.026231470443202145,
            1.0720804246738422,
            0.5982432520977006,
            1.6755572177306828,
            1.6095809399364793,
            -0.39123273441930745,
            -3.064064533471552,
            -0.7382720312678039,
            -1.0066497472741067,
            -4.995776869476941,
            0.7679315000746622,
            -0.966012557376655,
            -1.0027431358326022,
            -2.082170371955476,
            3.595907146649229,
            0.708676450212328,
            -4.1582284098289195,
            1.467070081637892,
            -2.888624415478883,
            3.567786968905078,
            -2.0877760221118167,
            0.11224123163313274,
            -2.5647764761476974,
            -4.935494238040153,
            -3.3245922276764444,
            -3.202272535824945,
            0.7066537763578604,
            0.10310703684454964,
            0.8024921456701629,
            2.4984606216482956,
            -3.159814429597004,
            3.1857457842505053,
            1.7406339635829624,
            -2.4239457112012524,
            -3.707848906032019,
            -0.6825865846390214,
            4.488353977918704,
            3.914878881263511,
            4.210222865656794,
            -3.673715986508834,
            -2.1065901274501804,
            0.09384368640554305,
            -0.8394101982943137,
            1.134525168198289,
            15.392120832301812,
            9.783944983707604,
            3.979602222865179,
            2.0824500641590316,
            -2.362838179532322,
            -0.649817181931938,
            -0.4830069521778519,
            -0.8411936750117593,
            -3.12062998500879,
            -0.08732663966464792,
            -1.2788765777113724,
            -1.6362502505697947,
            -0.46290524368910313,
            -1.4037760290111823,
            -0.8347905323219761,
            -1.0910605964602802,
            0.5583722272353017,
            -4.014910676862649,
            -9.228228364667435,
            -2.3961713984150443,
            1.6880004091951215,
            0.04413430979216156,
            -4.0833785228357655,
            57.25996869769617,
            -5.2784054478007985,
            -1.0083540557412882,
            -0.23788230430975352,
            -1.3197252607044765,
            -3.1573351155074474,
            -1.6675182510360158,
            1.0627568996923111,
            -1.3543759507076123,
            0.8967828323015512,
            -1.668193272567299,
            0.7425911646647496,
            -0.560944525337799,
            0.36202173719075736,
            -0.2572460696124989,
            2.571670602344524,
            0.48337289906052505,
            -1.793774584639617,
            -0.662017600624557,
            1.0595432276825318,
            1.0553587154874324,
            0.4606797308384595,
            0.8190835000495359,
            1.3730535244147675,
            -0.608419447829559,
            0.5045593110423195,
            -1.6319107140204587,
            0.9308399418734624,
            0.5432555224667669,
            -0.03876233552905736,
            -1.3794584254812958,
            -0.47915092389698954,
            14.547984753676062,
            0.11933863928766861,
            -0.8493244433956915,
            1.3134773706392415,
            0.7269286659593506,
            -1.332416618424081,
            -2.5091124872202646,
            1.6660078797178919,
            -1.387519609036165,
            -0.4466973075367354,
            -1.5246681562683488,
            2.89143713062257,
            1.9842266165366123,
            3.833325898243537,
            2.735747569271231,
            7.831485499851692,
            3.2196748389441328,
            0.5161686786032601,
            -1.809602459243137,
            12.518480609956676,
            -2.0559997592744446,
            0.12164877105595194,
            0.8705155902571662,
            -1.9919534029319619,
            -1.1772211264620969,
            -0.38169462691789136,
            3.4321591675172476,
            -1.4751155601782513,
            12.315009492137229,
            1.993124338248237,
            0.555360216834962,
            -0.3675536939556275,
            1.5936662295246036,
            0.40581333893458027,
            0.3543784318389573,
            -0.8514662588263842,
            7.936960043706312,
            7.829591133540529,
            0.6500547959184141,
            1.0519519517333031,
            0.9307112022425034,
            2.5488840692048007,
            35.21951891889713,
            3.2421026733828002,
            1.340415842613707,
            -0.4361843276008876,
            7.174167172889535,
            6.559518228554663,
            2.3972897674978793,
            1.069005397826237,
            -0.8549945609317966,
            2.3987828586953084,
            2.832800461726305,
            -0.5972997075036305,
            0.30204764619173147,
            -1.2231188833017421,
            34.07045268576007,
            -44.73088203889934,
            -1.2632947360499835,
            -0.8575299226561806,
            0.4191317366157701,
            16.57405853640343,
            0.5148936551667316,
            0.9379196478923116,
            1.3048836728397766,
            -0.4190295876654966,
            -0.5335137945501977,
            -1.5349302759268775,
            -1.1510655107489898,
            1.7014693957523166,
            0.6715075434642744,
            0.4685265530534579,
            0.09245555452832224,
            0.9009339593770771,
            1.613781524582534,
            -0.46128680883357737,
            2.1210076364948134,
            -0.3075817751638956,
            1.4013831915528339,
            0.3904352989384229,
            0.41175682050113677,
            -1.0224027491097663,
            1.9661710632712885,
            0.8417016446175477,
            3.163660126424251,
            3.5606995147921285,
            1.065612005879263,
            -0.4172128808339808,
            -0.7888925931243573,
            0.21065495584223246,
            2.3050214057804297,
            8.122748762089024,
            1.4296303902434697,
            2.265201338949363,
            3.1082769943283157,
            9.80657483830612,
            2.3971945894907107,
            0.8262144879458931,
            24.849942213927946,
            0.3552791370073243,
            4.258314569651172,
            4.641736290430065,
            11.829716442829747,
            1.688608591327681,
            10.745795623850697,
            5.706615842579426,
            0.27337997710435735,
            -0.03908256966844342,
            -1.8984361698594547,
            3.3169966455927455,
            -2.844829699352574,
            1.535316204068671,
            1.7943148879493283,
            -1.8340066364070302,
            18.583736923442213,
            -2.783734677144107,
            0.6784106070463699,
            -1.7819393269598005,
            0.39215471724546835,
            -0.4401588892485236,
            -2.1914276247566,
            1.1934125020998767,
            -0.048825880628528856,
            -0.40053919391688375,
            0.6267177048731373,
            -0.4849072684069582,
            0.6588264963851362,
            -0.4379126853231791,
            0.652925341012295,
            1.9712456888628738,
            -1.4283570771343779,
            -0.6477622685534337,
            -0.5659483202197898,
            1.5386547444915035,
            0.4124728783383694,
            -2.3584430242434227,
            1.532984182182063,
            0.8198656184587176,
            -1.4463180730777534,
            -0.34298382218818074,
            -1.381379322064048,
            0.8721862800120121,
            0.6646641284819979,
            0.023986163842812207,
            -1.6471014513745457,
            3.522575188322941,
            1.2539189396093866,
            -0.2786495135526071,
            -0.6957902200889556,
            10.963146563612552,
            0.6224157471082449,
            1.3135612652575994,
            -0.2684414730281796,
            -0.4685826776344223,
            -0.4978587716405175,
            0.7134558065447728,
            -0.0029474372176125636,
            -2.493800708102563,
            -0.03264614802143496,
            1.1612644915059305,
            -1.2090832526858732,
            -2.012432295777827,
            -0.9863944679249467,
            1.9838350442349668,
            -2.410876166828872,
            -0.6391077164283283,
            0.10633949159184253,
            -0.2142466873904573,
            -1.4707527227270598,
            -0.7488294916071602,
            1.6770378111143411,
            -0.12095676818626339,
            -1.8576508620134096,
            -0.9995037874585014,
            0.30448735746543726,
            -1.6931168164269355,
            0.04947990216040302,
            1.6036522134475735,
            0.7129134375772659,
            -2.32448330582028,
            0.09452517147394172,
            -2.2606803150395987,
            -1.1397679849155145,
            -0.3586774272894619,
            -0.3845938716021318,
            -1.2121161625586956,
            0.26049548022679614,
            1.322592138485705,
            1.1116883725083913,
            2.0551704016870516,
            -0.50783750166583,
            -1.3662963905611334,
            2.85639624289216,
            4.846970752609896,
            2.9193235039047933,
            0.02396030080681624,
            3.6170473366699465,
            5.546242670346833,
            39.687536278967855,
            7.480589520516102,
            -0.5059058693286789,
            0.31972745078269543,
            3.4067135709011622,
            2.7086106921525084,
            5.403526889317139,
            1.3080341200683632,
            29.47225807890623,
            -0.5530361656650354,
            0.2015661479544975,
            -0.1372337656213802,
            -0.13230564189968905,
            1.2477502926658595,
            1.0810643802458675,
            -2.432577819759794,
            0.6965622231647278,
            0.4503866792905245,
            6.608902808923077,
            24.856006311778167,
            -1.574406900403485,
            1.0618797345821347,
            1.115002428862611,
            5.069247013661557,
            -1.6201603638910693,
            -0.1371705225706535,
            -0.3769869372152317,
            0.3348717766722314,
            2.507546303123149,
            1.1275574982819154,
            1.3435364766041722,
            0.8280688514502644,
            -0.4588832469128692,
            -0.8473817545700029,
            5.688667041901063,
            0.16885827715093474,
            0.03872461631987746,
            1.47468242595798,
            -4.333824796389943,
            -4.110431792690229,
            -4.2561909217120715E-4,
            0.8901257581494814,
            1.7711839006289327,
            5.697345924229204,
            -3.8493956642123544,
            -1.2201658219101876,
            -0.7429562693971294,
            -2.3820401329735237,
            -4.233031585374197,
            -3.1728657641811098,
            6.011578544375472,
            -1.986461867897944,
            0.17908209929875307,
            -0.8508721921332503,
            -3.563202757752161,
            -2.3110064665607797,
            -1.0258679117679292,
            4.98773027702219,
            1.3384855918623684,
            -0.7771453913969476,
            0.3836660815550882,
            -0.926637175197348,
            -0.16294268225162586,
            -1.2074739865505553,
            -1.1350055675980812,
            2.775069789740863,
            3.055937459728204,
            5.852073436294408,
            0.45502947160033086,
            -1.128731761354037,
            -2.0509734420370807,
            32.087036657343276,
            -3.7336016211719834,
            -0.6315016664995232,
            -0.3250801909619126,
            2.4823839417664537,
            -1.481166928985649,
            0.22705598411407094,
            0.4350411465435788,
            -0.5949126064749706,
            0.20096033814315564,
            0.06508408520807553,
            0.2158023923958288,
            2.184504932795049,
            -5.763910424856789,
            5.282469772161056,
            9.617149971897785,
            8.167555045778107,
            4.503104850119146,
            -3.686710045002066,
            11.90464591039354,
            2.0335368982256945,
            12.067797582504998,
            4.473621882267064,
            -3.5280422363209456,
            1.6301541730555942,
            -0.5189679922249698,
            11.390391281546687,
            -0.1509394388785729,
            -2.174547645976388,
            -0.9080151448373136,
            0.39788216544123073,
            0.2258369387673973,
            -2.692750611459482,
            2.73816739511889,
            -0.4717442422205631,
            2.43280513182781,
            0.43259201597983626,
            -2.615536867371128,
            0.6431983444040947,
            -0.6371435815867601,
            -1.9482814734203862,
            -1.975618455951216,
            0.6511144537992493,
            -0.4418642181169122,
            2.5531789417654047,
            1.4273165821131255,
            -1.2118082718819847,
            -1.0788605206646926,
            1.5259150812335336,
            1.797926899659326,
            3.6818842223175756,
            2.117155511456742,
            -3.210306833830476,
            0.3399679462428234,
            2.228587740713935,
            0.007478201557379833,
            -5.450274110160858,
            -0.04164791518198748,
            2.4080777285337147,
            3.5357809771758895,
            -9.293131299809307,
            -30.134718199166656,
            2.179925711173658,
            1.9073735410122266,
            -0.9089662143281718,
            2.2880285186644977,
            3.1436530581776108,
            1.290621818782214,
            2.7017450332648765,
            -2.4093403816433088,
            -0.5222654506451263,
            -0.660582715729776,
            1.7301720485162824,
            3.3957128398914147,
            0.8715292056014713,
            5.6678116266163725,
            20.004916407264783,
            -12.180648937601735,
            -0.5890032776182275,
            0.935418192015722,
            -18.220877044332514,
            2.760009093565609,
            -1.565402850314656,
            3.2755203903445422,
            -1.3411928113871567,
            -1.9952978380396367,
            -0.31654374054407675,
            -0.401423929563483,
            0.5027523372697953,
            0.9900591041421518,
            1.2931817462272766,
            2.661731930560875,
            0.5814256875781142,
            0.9300907371459546,
            -1.1035151885434367,
            1.6425508444819032,
            4.050076749745581,
            -0.010124244786925736,
            0.06763447542196918,
            0.09515168069806425,
            -4.085917400667954,
            29.41535568585947,
            0.5953929602334953,
            0.0013979396805027214,
            -2.183657521575096,
            5.6665805107188865,
            0.11317471477296366,
            -0.8575425611444417,
            1.3323945765101144,
            -0.7898806489142952,
            -1.6640007359646336,
            22.830222105082033,
            6.092019603577151,
            -2.5440588183386983,
            0.9452450121245671,
            -0.13142874770069557,
            -0.4717749410928719,
            22.59074601845034,
            -1.5710882666184665,
            -0.9525442815810802,
            1.4855383642883846,
            -0.7179914214275979,
            -0.6265475847845172,
            8.239978596384331,
            -0.5640926476394099,
            0.5258650105442922,
            -0.10965551262610972,
            34.670115753252595,
            -4.3487223242038695,
            -0.2044848579107916,
            0.8579408216998627,
            -0.650868024682936,
            1.7419708517607055,
            -1.2679242748476867,
            0.02968249041881527,
            -0.06488071207072338,
            -0.8523300527890302,
            -0.9802629601909253,
            0.6823524787652713,
            0.9517218490978601,
            1.1894921776658542,
            1.9260104299083198,
            1.383689288396885,
            -1.5638104658044167,
            -1.0445691960640582,
            -4.343230453392437,
            2.8438513692381875,
            -3.637832808869007,
            -1.8601593982934217,
            -4.082227741585351,
            -2.917245973820304,
            0.6877193468597735,
            -6.144678249651536,
            -3.211811375840127,
            -3.9964262555973256,
            -4.8237877493407835,
            -1.294131242922045,
            -3.2415093815452174,
            -3.494644034067497,
            -0.5200167199748843,
            -4.740389002374784,
            -2.029779236003519,
            1.7880685771297786,
            3.375064571734543,
            8.3145266150707,
            1.4405506206188554,
            2.2496996465396486,
            2.144367203776744,
            0.17064008986294937,
            1.4959516634012622,
            -0.017742904961699647,
            3.109664102477402,
            1.2091092477251162,
            2.0427984323280226,
            9.3456250710408,
            9.137733192742422,
            7.032710557414951,
            0.627279579466162,
            -1.7678250700037768,
            1.151330671067593,
            -4.70597079206581,
            4.9951639823561855,
            0.03855492443037764,
            0.8049204768188251,
            3.0922568401702293,
            2.6978852606329955,
            4.391108703275275,
            4.980450235878963,
            -2.086178637707983,
            9.633500228876978,
            -53.739824278888356,
            5.412089901988313,
            -0.5782208556902826,
            1.731183845688788,
            -0.04775211998407783,
            5.83152750012667,
            6.381775731118972,
            3.258052342068076,
            4.033097064166219,
            -1.351131709450673,
            -1.5517430365567317,
            -0.34293454729368594,
            0.6788190237468043,
            1.4522726000258832,
            1.8313781682291046,
            2.357605917944784,
            -0.15808750163453386,
            1.1801297270523488,
            4.6496051346246166,
            2.084860310304464,
            -0.2876811147760336,
            1.0126503204663753,
            -0.05851933399620535,
            0.3279096244644734,
            7.808255465953129E-4,
            0.054394139464989735,
            3.1425957019751523,
            0.7524956130756082,
            0.7994396330679157,
            -0.5656160306571129,
            37.58247110928382,
            1.6029360910112107,
            0.6417529628455004,
            0.00355349285396065,
            -0.40113090340136465,
            -0.1797601935722499,
            -0.26724594050180334,
            1.5448938641383316,
            1.8903476497779428,
            0.7947272953000829,
            0.469135422514039,
            0.6504831932116196,
            -6.3232607042803926,
            2.003685181767917,
            1.4369816133848035,
            1.8371031898940045,
            0.028513354120696777,
            10.408328718876426,
            -1.3346930187218953,
            14.47151418835073,
            -1.2132190912327403,
            -3.3058353108112595,
            0.5362525172719492,
            -1.6228084956262732,
            -3.1328911927272305,
            -3.734401228198116,
            -1.204640117460006,
            -0.11922422164158962,
            0.7256895278696052,
            1.9042326797727789,
            13.55629940250652,
            -1.837371908561264,
            1.5876058489019238,
            1.4039194887535766,
            -0.03420594598585217,
            -1.4990882529606293,
            -0.18597057482899346,
            0.25129741726185667,
            -0.9297396271500631,
            -0.9374132971181625,
            0.5252712080673664,
            -0.7846538303128511,
            -0.9849683567162641,
            0.2074122079093056,
            0.9301056847435504,
            -2.1658217703967075,
            -3.4045193705984502,
            -0.27810553595345866,
            1.379561595511611,
            -0.9733640561390595,
            -0.03837429019156254,
            -3.443855819446759,
            -0.2172905498645577,
            0.9966471877134517,
            -0.6912447630218637,
            7.1928233982119005,
            -24.248680762797324,
            1.0568190489114222,
            1.6990988512907441,
            -0.02050643266708821,
            0.21416590661930157,
            25.712322582351266,
            0.416053736319005,
            -0.03896748328134928,
            -0.3151206601099234,
            1.011056545996625,
            1.2532112234975337,
            0.7330466214502667,
            -0.6936509895750955,
            1.0682895686144873,
            0.08543437886531895,
            0.041118022981864115,
            1.0266069021863573,
            -0.6189027258406732,
            -2.4011969925228662,
            0.08133172650643807,
            0.8326417301572678,
            -3.6576898447431954,
            10.461814529280227,
            0.6472008736092544,
            1.5425990291341192,
            0.9788122373365336,
            2.439981395395586,
            1.8580550933026407,
            -0.3716912134881076,
            0.21009220875956805,
            0.2794874125682253,
            -1.219535189842921,
            -0.8816693490952764,
            0.2251184934211789,
            -0.033595761062107765,
            0.7521166214688069,
            3.019902737385856,
            2.5586673848108816,
            1.7726782321735866,
            1.5370918679561412,
            2.804058630899428,
            1.693422612632279,
            -0.10482375976650263,
            3.9620579594917227,
            0.9211016737848782,
            2.0748156359732604,
            2.317334818192645,
            2.546875423354648,
            2.33168825630251,
            1.886721760889163,
            2.320351016900053,
            1.7622829516802636,
            2.922143878406946,
            2.3854882206228467,
            2.8528073306449686,
            1.0707424582088672,
            1.9551317180240813,
            3.436681972461951,
            2.7036234561917722,
            2.845751510288995,
            -96.40085044048254,
            0.4047070312046436,
            -0.6447481090568697,
            0.7015562070863898,
            0.0782835882008873,
            2.3438729917740906,
            0.35536627422901146,
            -0.18246104241342453,
            4.280083372928597,
            0.6785550146249826,
            0.3314695792511191,
            0.4207615224450582,
            0.4355694434410255,
            0.25025962165459875,
            0.7146499007682261,
            0.6513945680812583,
            -0.06392804270697783,
            0.861687234717692,
            1.6215901622238325,
            2.654036418150288,
            0.45112200604583774,
            -2.574768845182414,
            6.313382372320401,
            -0.06657746933789808,
            1.0708523954942235,
            3.5645896966206547,
            3.6934773761160726,
            37.69321135091913,
            -3.4825808287186617,
            0.5728774909631618,
            1.0739532692635292,
            4.474690298464067,
            -0.19978859812482433,
            10.180998285096422,
            -0.8054954712478655,
            1.5894262000878256,
            -1.5702158677110376,
            0.00334041429846179,
            -0.7422200871160989,
            -0.4999885272828158,
            0.9688371463598681,
            1.1872715181438458,
            0.26668544959580903,
            -0.4058443229835437,
            0.8286266173112794,
            -0.2828377019584496,
            -0.46880555032936433,
            0.7077935618371932,
            -0.3372040621262411,
            0.3072003153112486,
            -0.5828788182359927,
            1.408169239748749,
            1.1501522087374854,
            0.1916599703684768,
            0.885761698740542,
            0.3965396925333514,
            1.9704280068294868,
            -0.5385932615199467,
            40.522817409260504,
            -0.14596729462754923,
            2.514665637873469,
            1.3112684464400188,
            -1.2035412159406624,
            0.09260425789814056,
            -1.0823595420711138,
            1.4339203399653837,
            -0.2238720485012977,
            0.9818818056066839,
            -0.2574542378321423,
            0.4815706922048564,
            -0.7005504135711057,
            0.2561218897127026,
            2.4278456399829196,
            1.768697890690744,
            1.7302970003009825,
            -0.30797417214048434,
            3.854475996295089,
            2.904163175778029,
            0.007514209846142057,
            15.580915326293109,
            1.7412404903548493,
            0.0827594975017859,
            -0.16862270725370468,
            0.9629458028139001,
            3.6871750292780185,
            -1.842579333316921,
            0.3950403158963952,
            0.6340737514043345,
            -0.22833213919257062,
            -1.4183434553906034,
            -0.9243816684383549,
            0.7543581391962941,
            -1.0240267713263436,
            0.5512764553407401,
            -0.7317668277440782,
            -1.2511862923364105,
            2.152407280867612,
            -1.2050561343678192,
            1.160906908201056,
            0.1387158041657585,
            -0.009750908192803524,
            -0.12975199675074392,
            -7.157962436120685,
            1.327793734346241,
            0.9071723315273886,
            -5.878823654896853,
            -0.17004968691208508,
            -0.6638670591505489,
            -1.3660413004211622,
            1.0305300274451024,
            1.3627077158552574,
            0.8968257282181609,
            1.7239048168455273,
            -0.8701939164016204,
            -1.413286594807836,
            0.9760076283582263,
            -0.5828764982365687,
            -3.129903828760886,
            1.2807530331347992,
            -3.154143045158053,
            -0.36841315699010657,
            0.020092819950283308,
            2.1567795384190944,
            -1.7783235231758805,
            1.1488432964389068,
            1.2706293324011004,
            3.0527992865762084,
            -2.259898377414418,
            -0.7728060983269694,
            -1.2992774256419966,
            0.018963872484111324,
            1.2859252757856927,
            0.3588663807873421,
            -1.1454555355708878,
            2.4597565665240047,
            -0.011176202834578517,
            -0.4037457492525759,
            1.9292843399713928,
            5.845971557573273,
            -1.1450738701413676,
            -0.28994515609237315,
            0.47831116646662836,
            -0.6028893540294321,
            -0.2595579465278905,
            3.2907789609656244,
            -1.0824368113793923,
            3.305269314486541,
            1.5194808625280725,
            -1.0032715582672525,
            -0.7249991195144485,
            0.5767637553385248,
            0.9876336741816927,
            -0.48705844782335433,
            0.7890584498990604,
            0.8269972686790329,
            -1.1252970982491393,
            0.478480560577639,
            0.4309626795346654,
            0.7955419727966676,
            0.39860698395119876,
            1.2315927993876048,
            1.0439537099941798,
            2.299445943194231,
            0.4201201355351455,
            0.16407163615088557,
            0.009464597347227297,
            1.1779513430899653,
            60.04450152995397,
            0.5368475715541948,
            0.723767397284886,
            -0.9387405504123847,
            9.387571836189895,
            8.184762872985395,
            0.1648105766951883,
            1.5070660803348308,
            -0.38822430065555513,
            1.3225630208564236,
            0.6527453350973141,
            -0.32946235314409433,
            0.25561394632121576,
            -1.0568387689493786,
            -0.010371591367829745,
            -3.8308391902274965,
            5.591762406451292,
            -2.98150466754558,
            2.500893989889866,
            1.5950447763371538,
            2.998018907255112,
            -0.2839940656513961,
            -4.069349719943863,
            2.97207196434597,
            -0.9526327882125123,
            -0.9310014758939368,
            -1.8147743084119414,
            -5.392275628168974,
            -1.5041101567040256,
            -3.1925514764652276,
            -1.042318295538198,
            1.0817766231891535,
            -0.1351596924641538,
            -1.700956645746014,
            0.03037007095397724,
            1.802148620232729,
            0.08871511870315582,
            0.3322608969994201,
            0.5420657295623484,
            1.2491612859911985,
            0.23327168083596073,
            -0.20737536395302003,
            0.9056839693193386,
            2.5653269607288993,
            0.12083035582235523,
            0.6324670705027411,
            1.3548083908828124,
            -0.5217489438471439,
            1.0037987875667764,
            -0.1778700262268847,
            3.4079523223937507,
            2.125433801675953,
            1.376947629281352,
            3.998191779980694,
            -1.2172063375847673,
            -0.6877489336071522,
            -0.14537689828321385,
            0.040644461852273064,
            2.0766114068730346,
            9.746978850575967,
            1.9560994080019545,
            -0.33714926891102803,
            -1.2072270818526498,
            0.42866387261994476,
            -1.1816819018247975,
            38.30525240073531,
            -1.0081218133476342,
            0.7994053076876804,
            2.521248714452343,
            0.0023905623705361236,
            -0.33080870442781307,
            -0.5875236737346952,
            0.013228089602688268,
            -0.19557174470319033,
            1.4443832840783946,
            1.2288868927155194,
            -1.5100495401893468,
            0.5472585791198961,
            0.12179999452920479,
            0.8002302457201816,
            -0.5819518035945356,
            2.2776847126206903,
            0.487300014766017,
            -0.773592595861888,
            -2.0261955431691034,
            0.07040483181972597,
            0.14497452659449103,
            0.07902544144559029,
            -1.344219268515176,
            0.840425055636813,
            1.8225372007788785,
            2.433716251363662,
            0.42092083849013856,
            1.7960002673539308,
            1.1018245445498198,
            -0.9848947652883511,
            -0.61747248935869,
            -1.810711171959101,
            -1.433305281626223,
            1.380371558869808,
            2.536638239101558,
            -0.8844215422215429,
            3.320623464929224,
            0.5155130080755347,
            1.185198649886234,
            5.071384485532311,
            30.136689343857043,
            -0.7791039020103344,
            17.15564194440291,
            -1.136148754165723,
            6.003329602385642,
            -1.8062271179432634,
            -1.3002077830102203,
            1.862700081936476,
            -1.4690610229095213,
            -1.1623485622161356,
            -7.83251378711305,
            0.07608146420586966,
            0.6468674512800097,
            -5.698598740220619,
            3.9818206987221196,
            -1.6763056216124546,
            -0.1897861513294414,
            -1.0514792816518768,
            0.7295734292845947,
            0.7143750438120404,
            0.8646298876323204,
            0.0010768756048420932,
            0.3128192372907753,
            2.4534773950887354,
            -2.90780067333321,
            -1.4072373712804003,
            -0.5582848664057117,
            -0.9536832352891816,
            11.540583930329797,
            1.6415185867107636,
            -0.4354006613805595,
            1.3372486682477474,
            -1.0601233910770362,
            0.5514348307604322,
            -1.1618200803793097,
            -0.1267745430684682,
            0.27418168745898747,
            2.108975216879126,
            -2.635844146960071,
            -2.233085048871946,
            0.8456658801935847,
            -0.3151175936123521,
            -1.7881246211477366,
            11.544934916103463,
            13.524912362578675,
            -1.8789429317083013,
            -0.7970354110535708,
            0.1772812100427651,
            -3.2303534067042534,
            -5.719991566334154,
            -2.4309806336840167,
            12.359266046120654,
            -2.1463125767228557,
            0.6953166693517829,
            3.6098417445517064,
            -0.7000739473085026,
            0.9416259373281257,
            3.661442822927926,
            1.4969647021859753,
            0.4834279281247445,
            0.23916241041027353,
            0.6826790968133581,
            -1.2765613214347706,
            3.1304487754951817,
            -1.2946395243246391,
            2.9073916522791317,
            2.5952728063765655,
            0.414308083816045,
            -0.39163326452356995,
            -1.4053464364142771,
            1.6622313516487446,
            0.7152352096252528,
            0.5429876370606234,
            1.765369144052283,
            1.858034470727475,
            0.35876222957444215,
            4.480433643272709,
            0.4898301743749785,
            -0.5693444779522039,
            1.2677507222606175,
            1.4936738140432806,
            1.7615809202326498,
            -1.598505080082979,
            -1.9424009915714298,
            1.5485630630459353,
            0.29815953687922087,
            0.8864792294233913,
            -0.33510723571747525,
            0.9642682885958226,
            -0.433067590897561,
            -0.3184187663643707,
            -0.32174936457755804,
            1.2234553976327958,
            1.1528135906458385,
            0.7109321151153953,
            36.16472745868098,
            0.154993505159995,
            1.5469252432209757,
            -0.42672609214753343,
            2.781314524116369,
            0.592322088552413,
            1.3031663536075895,
            0.19386179272215,
            0.9475685442401393,
            -0.9710800360343683,
            -1.8923438449555263,
            -1.4986328536818607,
            0.3124873955165627,
            -2.5105333932207365,
            -3.2793818519258364,
            -0.862127514139363,
            -2.2827858667561336,
            -2.147980189090081,
            -1.6497095445371448,
            -0.7493400425006792,
            -0.23252266849385264,
            -2.384036831010996,
            0.23204998046077457,
            1.3470043884235725,
            -4.92852213507474,
            -2.807626558758965,
            -3.5907182913127422,
            10.032124738056755,
            -0.033670703581537946,
            -10.674344678236372,
            53.71687314517272,
            -5.4066781663840375,
            0.07413535183349347,
            0.7923667336783318,
            -0.4725055674692826,
            0.950703354852852,
            0.9176336241329586,
            4.866841694173178,
            1.1983990000414193,
            2.4608791806087553,
            0.4130981210791916,
            1.391380943274934,
            -1.519976305516986,
            2.235922843161468,
            0.6911853497518293,
            -1.6192270221324507,
            6.3803195089939555,
            8.850315306037515,
            1.5083523918274586,
            2.6243387791190713,
            1.2539281506547189,
            7.236556247997367,
            -44.060946323569645,
            0.11718151283806254,
            2.733128919743731,
            -0.1964446740632676,
            7.036060895315698,
            4.833354997758337,
            -0.6401683450822855,
            2.068258923908916,
            -2.669287625014536,
            -3.2848248955783625,
            1.7469592114401753,
            0.01019609347152816,
            -6.075375105072299,
            3.9844294819974526,
            2.8751349628726572,
            -6.100532018774893,
            -0.40068071705775865,
            -3.112704094011335,
            2.2750264196351955,
            -0.4641757713062068,
            -2.168345285177712,
            -0.9678338536664545,
            -0.777522963004631,
            -5.255608533960432,
            -2.1419030797808767,
            -2.3528472155487328,
            -2.247198249756859,
            -1.713484090063282,
            -2.192491045579878,
            -0.4675885725642082,
            -0.8539094799740538,
            1.4614481492046074,
            -0.8479912436019793,
            -0.5683898543063804,
            0.2831421100341549,
            -2.2939329174269147,
            -0.3649937404767904,
            -1.5942666990223338,
            0.8474448944426377,
            0.7690537668305856,
            0.15087719172843758,
            0.10966431767461053,
            -1.0978115361031477,
            0.28605982169130384,
            -1.3960655093012944,
            0.29642522979531577,
            0.35732015304321,
            -0.20477457334034666,
            -0.2353800805999253,
            -1.221816395341158,
            0.38842101263292306,
            0.18817872292333124,
            0.2408432630503459,
            0.19813168102331927,
            -0.5425008155216424,
            -0.7539974351916379,
            2.099888806461581,
            -1.5447633645205516,
            -0.09503536915110883,
            2.250487835794798,
            -1.1938716456847296,
            0.3844145994347297,
            -0.1399954828457897,
            8.930348879129212,
            0.2886898348461809,
            -1.1102243889887513,
            -0.4472262978744583,
            -0.51871780182848,
            -0.4412066742392489,
            -0.13186470292454175,
            -0.14829511194261233,
            -1.4287311006037364,
            -1.297432890603035,
            -0.10972536754624906,
            -0.8904203217490607,
            -0.5350021929328834,
            5.698298838561504,
            0.9855033022361992,
            -1.7517462971649862,
            0.6296102343639636,
            0.27846346610607436,
            -1.2344704003420477,
            -2.045863978468229,
            4.03774317357952,
            4.6503424421891175,
            6.117208492139155,
            -1.2834367939024598,
            2.2413756330755454,
            -9.51798583007932,
            16.965601394556767,
            16.16807843695048,
            2.314718109300262,
            2.013167746950632,
            0.024427357896823564,
            2.9215821099564687,
            8.354251216637676,
            0.3716331087800332,
            0.17596751175391895,
            2.3098952797819607,
            10.994411260412715,
            16.56137555038608,
            1.6892798650286172,
            -2.182165849010416,
            2.9129145434829717,
            9.395281316010758,
            10.942393732365543,
            0.5644541133966279,
            3.2375930541400035,
            2.9303380297034827,
            3.1359695659625233,
            -1.4438660866281565,
            0.49976793086817,
            1.6633977821323838,
            28.177339986035737,
            0.2943473230119041,
            22.90383134913191,
            -0.33525173118777596,
            1.8638342115914375,
            -1.017834657667626,
            1.2485617468059342,
            -1.5906978834526935,
            1.0910144606911372,
            0.744522150270862,
            -0.42777523515294935,
            -0.7850724158331548,
            0.34776527919285577,
            0.20001112096426948,
            -0.47488672094890255,
            0.5398541638473432,
            1.2011716080744181,
            -0.5973580974434253,
            -0.13992640985331553,
            5.079080621196165,
            2.9996212556840938,
            8.33573652153511,
            0.27848384834398004,
            -0.16192652666412444,
            3.1358964656697776,
            -1.4969100648039144,
            -0.21045053287244195,
            2.6992309538293187,
            -0.2515499384355019,
            -1.7780039418396494,
            14.216684072588931,
            -1.4656999299016211,
            1.4773823289287116,
            0.597112731765396,
            1.394439520660334,
            -0.8772603853340227,
            -1.586635419544817,
            1.4704389265150886,
            -3.4711174583415225,
            2.2939143766117733,
            0.11343530805700931,
            3.09472289794464,
            6.187155304987368,
            1.3854704453022537,
            1.7432094699178466,
            -1.7413861912628446,
            2.7697204319842754,
            1.8484996485976755,
            6.9303234873304325,
            7.802830859697638,
            -0.2785573960020402,
            0.21191466559458705,
            2.118137048705951,
            3.412382645457411,
            -53.13423640303291,
            4.157170403623354,
            0.40623944878433876,
            2.699911612528568,
            5.769539408808319,
            6.538836032926606,
            0.044187810322882874,
            1.319067585622566,
            1.257682000252353,
            1.053646109312336,
            2.750852617039361,
            -1.0321944601047162,
            2.5676626285971045,
            -1.2601578788743175,
            0.8101350045748917,
            -0.047447689456922175,
            0.5444444718323694,
            2.093908012183326,
            -1.552172917465572,
            0.6239929301900907,
            0.3024967351080426,
            5.033865422528202,
            2.72960091512408,
            3.6623802437460773,
            -4.976231364948981,
            7.448309113762141,
            -0.08952660276895924,
            -1.2996733334518769,
            3.3731396724170355,
            3.1768380663077465,
            0.374248136433363,
            0.7004428937526098,
            -18.86679523310798,
            -2.031823249175368,
            0.09020990106564881,
            0.16283825502042387,
            2.3694996603953853,
            -2.6418613470170844,
            8.604871131301161,
            -1.8675936637247468,
            1.556172381232075,
            -3.9197754114220063,
            -1.318892476782549,
            -6.616860270984813,
            -1.8136066546873588,
            0.9181634423983083,
            -0.8470771035043905,
            3.5439608726701852,
            -3.078416851645739,
            -5.002921583996728,
            1.6873897710940438,
            -1.7098390179354754,
            -0.3435869228042222,
            -3.447338403159145,
            0.4695939941991449,
            0.39809593268487625,
            3.766161045926554,
            -5.5885668210843065,
            -1.8800974916192836,
            -6.883133118431784,
            -0.2655618406591006,
            -0.06903048902173167,
            -3.838938536654394,
            2.7787067665075877,
            4.756303831570515,
            -0.9756650874583607,
            1.7090594837168624,
            3.5005080060100675,
            0.24193267589714607,
            -3.0758653886081677,
            -0.23939872448745286,
            0.23596094719853072,
            -1.3547080936414846,
            -0.06457189188525976,
            -1.1531596206154955,
            -1.3930830996576933,
            -0.11381173217592226,
            -0.33454974374491814,
            -0.8663092071061828,
            -1.1266480367849308,
            -4.2446586589637585,
            1.1007777090648996,
            -3.9716860812289494,
            -0.49552894222461186,
            -4.315511355110358,
            4.659349530613823,
            -1.0484248595938264,
            1.9623335864764964,
            -3.0410142520153194,
            -3.8536206510791446,
            -2.116288357105936,
            13.164552113538733,
            14.79806764371722,
            4.963052980230169,
            0.3619161755233042,
            -0.7806674198113425,
            -3.727634992928094,
            10.382980851930201,
            12.222721659820369,
            -0.9144457900811124,
            1.67117122643981,
            -0.5437585676794026,
            -1.1645669249280177,
            8.41419055695635,
            1.1335436013624922,
            1.5482234202965068,
