{
  "inputNodes": 25,
  "hiddenLayers": 1,
  "hiddenNodes": 128,
  "outputNodes": 25,
  "weights": [
    {
      "mat": {
        "type": "org.ejml.data.DMatrixRMaj",
        "data": {
          "data": [
            0.5743600090614265,
            1.0563711547181152,
            1.9995630170728358,
            -0.6286239563741657,
            -0.16661979691782922,
            1.4381933806349734,
            -0.7290873461792315,
            -1.1803385545665035,
            0.8489608933893694,
            1.1867276127992048,
            -0.2905439422747415,
            36.21886690473178,
            -0.2928664550581774,
            0.9671816166040458,
            1.8102080644708192,
            0.7643986322080243,
            0.16161896695493957,
            -0.5873533387509478,
            0.32471576097796956,
            1.5241427496211168,
            0.3920026752032597,
            0.7487950235624744,
            1.6516261249783075,
            0.0075172375018745545,
            -0.39433313833076133,
            -1.4637542367359804,
            -0.36220013661783423,
            -0.27138874736591295,
            1.1578458540611998,
            6.991198453610289,
            -1.8192241335135588,
            0.7667074772546696,
            -1.6005754668078016,
            1.3112340335256558,
            2.698340621913083,
            0.40660893936699666,
            1.5138046193588688,
            -0.017680878050120804,
            -2.7072232101804112,
            33.22144048836146,
            0.8015622812471216,
            0.2727576943777143,
            -2.525513336135273,
            4.7950727136757525,
            0.5283403308938155,
            -0.8072857531090093,
            -0.4461606679335058,
            -1.5664214924822975,
            -1.787615535010349,
            22.457597436360306,
            12.936540758976212,
            8.25333111099931,
            1.6826380717397396,
            -0.146847270972389,
            0.10027959090360011,
            8.297435073022463,
            53.67832102548068,
            2.508589943085093,
            0.3474118648181605,
            0.7955336147801111,
            0.3348180475034397,
            1.9192359953285631,
            2.1822686184462126,
            0.11244683532624705,
            0.8752244676664861,
            -0.06228082551678344,
            1.3172097940845497,
            -0.26029763696744757,
            1.6723609832110784,
            0.43029391046831067,
            0.7586953367799226,
            0.676215906878656,
            0.6872715025500465,
            0.6001086362701757,
            -0.9459841031627996,
            1.4451538450345616,
            3.7200529519964545,
            -2.1538458527238493,
            1.25047178598841,
            -0.8634351389450526,
            34.29549064610778,
            3.8560914484238373,
            0.22248345981019868,
            0.8827024771380962,
            1.8840361498353353,
            5.424230954645261,
            8.429545124018361,
            -0.27583812828695786,
            -0.13306688652134954,
            0.5209152194006733,
            3.218759195839044,
            1.6216190179950747,
            0.9028663215654793,
            1.7847514695090694,
            0.06206117334876954,
            1.327584434130101,
            -1.5435232764867297,
            0.26754979686312674,
            0.19312920540812303,
            -0.27401372180552924,
            -0.834065976004835,
            1.349350811099774,
            -2.3380756224483488,
            -2.1452390609926453,
            0.8029210291294138,
            1.7736798620731713,
            -0.506019318678629,
            -2.3971311202617502,
            14.491813108400061,
            -3.8058123218803077,
            -2.223316737174874,
            -2.7157425701637763,
            1.6376346878419432,
            -1.657342556394303,
            -2.4491357706688324,
            -0.4278500495525497,
            14.05908524536255,
            0.21695141749746846,
            -0.958927587525663,
            0.42642666766100945,
            -0.04013558283088173,
            -3.15009343618654,
            0.5445203809896312,
            1.8405097597012876,
            0.33410759525567296,
            1.163349915874154,
            -0.38389054655875443,
            15.50034182275013,
            -26.44012541891301,
            -0.761853449320069,
            1.3883240661483245,
            0.37196805264766897,
            -1.6159586982089593,
            5.893117125529208,
            0.7995970601571861,
            0.31482054017728806,
            0.9243533038908293,
            -0.008275365019650855,
            0.5512846143255747,
            -1.3093417659268618,
            0.09163536479523685,
            1.3219574784637447,
            1.1148259157504463,
            -0.34580776247850226,
            -0.4231007102483946,
            1.3129548450333246,
            -0.4798316770587418,
            1.166700607806495,
            1.0550492093986952,
            -2.6445544921881328,
            -0.10285181112008657,
            9.506259866498441,
            -1.843531092152251,
            -3.2675463530268285,
            1.4533053167868963,
            -0.9847830988012073,
            -1.729189594841588,
            -0.34561894053214587,
            3.2417447160386135,
            -3.657648127294371,
            -1.30653144957634,
            3.740939714798956,
            17.53630115443953,
            7.06499749578734,
            2.112646576715198,
            5.831855670716661,
            -1.4420584244324308,
            -1.5029816156119624,
            -1.4521245453887173,
            2.248743308970099,
            -1.8320851333404338,
            4.497062627548423,
            1.3439239780091388,
            1.4690850046242583,
            1.9711795222669592,
            5.449494431490247,
            3.033654357218944,
            0.3753395691918148,
            0.11752302073903895,
            1.4240218229781343,
            55.45417690323527,
            -5.140279506973705,
            0.79529037902947,
            0.7158849624840649,
            2.708883317369979,
            4.29858373494137,
            1.9372752882794126,
            -0.31118704918832596,
            0.8444091526625626,
            0.410581772925669,
            -3.643730386109242,
            7.525548319177241,
            -1.7562405652812614,
            0.6748853452636014,
            0.9065090279154582,
            -0.1840096433153893,
            1.5183062045172413,
            0.1857737417518745,
            1.476964069167777,
            -3.780057581577073,
            0.7656476237608223,
            0.9791864650174428,
            0.5831151318711132,
            1.2414578253306894,
            0.6959824478495293,
            0.3773100428971476,
            -0.1204722451455027,
            0.7766295385693884,
            1.2905475447027144,
            5.798343998551618,
            -5.248765586406768,
            0.8880226918861923,
            0.040411255097144716,
            1.447800837018325,
            -0.8530659481589197,
            -1.5922542885923587,
            -4.456918710497468,
            -0.38000235109829716,
            -0.07642165878857399,
            0.3506426910624058,
            38.53811407695908,
            -6.334467528247381,
            20.0556205442333,
            4.399612497419769,
            -2.642152580831933,
            -4.187660537830163,
            4.597605675207888,
            6.107324654226514,
            6.822321031395005,
            -4.149167875977472,
            1.2238503259205176,
            -0.25908267397940293,
            2.92636825402405,
            -2.8263533507558987,
            0.42592222104367955,
            2.2330806120921207,
            3.6963670446589547,
            -5.846182078705338,
            -4.526267094988629,
            6.635900085554063,
            2.95670226424615,
            7.301121906947573,
            1.8576126395365111,
            3.0941423988110017,
            -1.6587737605932964,
            0.5457959235228795,
            0.2558208968389987,
            0.2748493331365998,
            1.937039336275025,
            1.7037007216536553,
            -3.2325963105298112,
            -1.5296803659357046,
            -0.29479535421786107,
            -3.2069374290965094,
            -2.59981441905045,
            1.2528434165019604,
            1.0436596576828894,
            1.9750311563996106,
            0.8659527826193117,
            0.47275642643470717,
            1.2963668206972623,
            6.5075214539551585,
            7.054633975042064,
            17.46238143403168,
            0.0991075594756259,
            7.700096086095714,
            12.81365086133393,
            -4.080285535513536,
            6.874089067662909,
            4.091802902166691,
            6.631317452512725,
            13.91493802810583,
            13.915391877095884,
            10.422129684833259,
            1.1208521423323532,
            -2.4436310538477333,
            0.6798531489491306,
            0.6819653430909629,
            0.9417048945786217,
            -1.8186278364759874,
            1.7693356695381635,
            0.11217580999980985,
            -1.1121751873002643,
            0.23217162145138728,
            -2.0981726420745854,
            0.6443630966550548,
            -0.04204977632992489,
            -0.7965849807542953,
            -1.000458209997275,
            14.323307140483413,
            0.4042855108999546,
            -0.4050967539174071,
            0.7977413253109777,
            -0.5200620663130517,
            -2.7077916362981234,
            1.4970718679449833,
            -0.722657660341831,
            -1.7702823968860166,
            14.302781781500503,
            -2.094566603383912,
            -0.10791472352469808,
            -2.56346580014849,
            22.897682219801833,
            -1.2122869679387114,
            4.153440803385427,
            -0.47477065330896634,
            0.4865303927484832,
            -0.29062352269798686,
            0.7210187367223154,
            3.7727169749771092,
            1.4469051211083572,
            10.708222413478165,
            -1.48956538960221,
            -0.723199132602061,
            0.11667271969419023,
            -3.095440611412619,
            -6.804966506442033,
            -1.8254686634305977,
            -3.7886860723457465,
            -0.860474014649977,
            -0.7346203322696264,
            -2.498549091367941,
            0.39850877463284745,
            0.2827386721744078,
            -1.4084675113191594,
            0.04258207003084147,
            -1.4225474772008264,
            1.4805064445497615,
            1.6115279136226952,
            -0.3448941650745793,
            1.9473392410862056,
            0.6184609244507482,
            0.049846607153847165,
            0.342735681728581,
            1.380716152065102,
            1.3712012730657,
            1.07313501024645,
            -0.1294515925142811,
            32.73246284801193,
            0.7910092429464879,
            0.8618402562933893,
            1.0548871343932986,
            -1.2071506038002116,
            -0.3114223747191973,
            2.1756261000069763,
            -0.48169934593933295,
            0.4944093151436685,
            1.5882638865557916,
            2.663698093389315,
            0.6014074234029413,
            0.7550531281752537,
            -0.8421994450793749,
            2.842952747493052,
            0.19940522765830196,
            -5.3655463991682,
            1.355315393570701,
            2.1730846231161505,
            0.9271890643734775,
            1.886905090011992,
            1.5611116636608697,
            -0.6153571554120952,
            0.8733099382032454,
            0.5397937237066135,
            -0.6150599696647583,
            2.2190240954771197,
            0.5137214142231388,
            4.773435391796193,
            8.037998158015403,
            -0.7721786676721605,
            1.0642594316427179,
            4.777109413317404,
            -46.77880386870077,
            10.897255397621333,
            -2.60320306666856,
            6.471924849940416,
            -0.7844187070062536,
            1.5598714850383661,
            1.2389833627161917,
            -0.06927698013492982,
            1.90328391452922,
            1.811346466699821,
            1.6458353279989377,
            3.206385395630393,
            1.601360195354144,
            4.383550756771202,
            1.1805829337308573,
            -7.430540186705241,
            4.475750737626718,
            0.7908079724735015,
            1.7356580356400964,
            -1.5336144593720982,
            0.8940353052577444,
            2.4707579416977863,
            -2.2152114283815805,
            -1.2360510504754374,
            3.966060004691006,
            1.2469771537467307,
            2.8532092646116043,
            -1.7274321066268135,
            4.689985241349034,
            -0.29519612061612743,
            0.03494515146881781,
            -0.12742817451058183,
            -0.475302319472508,
            -0.9889560818222021,
            1.2229567504255985,
            0.8244811997095328,
            -0.19180564314325543,
            0.5504313072133404,
            0.7630679471600627,
            0.4102617206785928,
            -4.026315955628987,
            0.2329035887037737,
            -2.5703291575711282,
            -0.8645294161865446,
            1.8873965124406358,
            5.870938037892556,
            -18.78911046078509,
            9.558576378156028,
            0.7482945614429891,
            0.03360382454520238,
            -0.4330137097070335,
            51.67853350403733,
            -2.9964421931163234,
            -0.7113441619610977,
            3.716267213198491,
            0.39601713479359435,
            6.494949338636213,
            6.349465069031155,
            8.555964747738035,
            3.2597569210018547,
            -0.14568906969440032,
            -1.4628360160324207,
            9.363902553863305,
            12.032981887821984,
            4.379166509230783,
            3.5251124491254937,
            -0.9471905854198919,
            2.368883498828101,
            5.313073899392647,
            1.445700600917309,
            4.545261255976989,
            4.106529832378933,
            0.13859859932767815,
            4.384623390975595,
            4.294004992102462,
            3.0253769273130655,
            3.3659881200666275,
            1.4001389434609537,
            1.4924052257471205,
            -0.3748531679548194,
            -0.7589090494064479,
            -0.2771887649077614,
            1.3620242538936371,
            -1.3237150446332526,
            3.683300773682274,
            3.208006247723529,
            1.4686318425717428,
            3.1435944512775036,
            3.998151154755323,
            1.3699916069951124,
            -0.007776177549956846,
            1.9437644638432854,
            1.8177392124171012,
            0.15458595933594046,
            0.06118961697383448,
            0.4323287928705282,
            -1.4396504295883161,
            1.0241321970045132,
            -0.8453512092223364,
            -1.152263778310967,
            15.213451498040028,
            -0.544909395497927,
            -1.2486293551014342,
            1.0536327314506975,
            3.820071498384413,
            1.8588564885314773,
            56.158642510370676,
            -0.4445180251776952,
            1.129759489760719,
            -0.0603469899709022,
            -6.511139551370983,
            3.0828477980199294,
            -0.05227358751673369,
            -0.2896700412726573,
            0.06437249221586894,
            2.034895276985617,
            -0.16154187751363802,
            0.025827463201032432,
            0.8496899032444594,
            0.7974128045530633,
            -1.2627149400848086,
            0.6143573952776736,
            1.2940222002066433,
            -1.3146010780124944,
            -0.5747684650474508,
            0.7067889219904604,
            -0.40033512089504225,
            0.3540191547448455,
            -0.03506750908741593,
            0.45948957548481373,
            -0.566945221409413,
            0.2016606248495622,
            0.09768373405823969,
            -0.34240924508066795,
            -3.5477161546107627,
            9.991137432090555,
            -0.28017968790250825,
            -0.7641821975277212,
            1.4196220108844884,
            0.19572610945404878,
            1.0532037623279953,
            1.59960930199111,
            -0.9568769739423376,
            2.0029458243464844,
            1.1695186925631706,
            1.0186288857087638,
            -1.0991170369871657,
            0.1197292145305144,
            1.5096739573377447,
            -0.10392933997688036,
            1.6631838133514785,
            0.7077148330603382,
            1.0458939237962863,
            0.5133739868063868,
            -0.6223390002925417,
            10.63319784105394,
            -0.28169498897027195,
            -1.3927005412452398,
            0.9616825751430981,
            0.1543927915412591,
            -0.2771149088264851,
            -0.6800093247610105,
            4.728618098047185,
            -0.026361055076846662,
            2.9345443445500092,
            -1.094104512986639,
            1.1458777198875845,
            0.21366619444495474,
            1.9855607607846957,
            6.569188081075185,
            2.8767415164840338,
            -0.4408705158701691,
            1.9876531897571852,
            0.8085449131887512,
            -3.7790012424936945,
            -0.15868698975683937,
            -0.43610749975941343,
            0.6926255334077617,
            -0.7079921356823207,
            -1.5008128538912575,
            -1.0523790316813235,
            -0.5036605917802204,
            -0.292532286777834,
            -2.708622794224766,
            11.830854668973048,
            1.5493493244316807,
            1.2551454708692222,
            -1.9269535308059391,
            0.9572281159025327,
            0.7091816934958991,
            -0.47946246918388163,
            -4.202607621297646,
            12.80361006938627,
            -3.0997985142183735,
            -2.067909115613285,
            -0.2696943307297437,
            -1.480290564447445,
            0.24176949723775,
            -3.6848122461605457,
            -0.7929369027283052,
            -0.510801192120272,
            11.939291321162038,
            1.386124259040051,
            0.9425818150965284,
            -0.4167254891658923,
            -0.42229057788137486,
            0.8662010307757396,
            -0.40034905654811453,
            0.7546324317586645,
            -0.7503429627037246,
            0.9987632451547003,
            -1.4827851268080385,
            0.8012264578198203,
            -0.5798091774950747,
            0.6003795916659213,
            -0.5739137025632207,
            -0.8205253483792427,
            0.40607496704578216,
            10.552571039289404,
            0.932267307252539,
            -0.6610744974430678,
            1.6329996021608146,
            31.744538369067843,
            -0.9882646138202676,
            0.05076545430308532,
            -3.6503671557091364,
            4.524853248168666,
            0.8264834461557862,
            0.9785846673339574,
            1.2435762044770502,
            1.2551830339196617,
            -8.86444812457195,
            -0.44048417905856746,
            -0.6621306720125917,
            2.7388326492153228,
            0.32055901052535896,
            3.397910139511885,
            -8.052131487969385,
            -6.706866898584127,
            -1.1712463925525782,
            -4.624221538122846,
            -1.7316608822979012,
            -2.8725924231218998,
            -6.14780822973747,
            10.025109105976885,
            3.2658031221669916,
            1.9043649910444127,
            0.08413054914637214,
            -1.957313588025037,
            1.8506085819131537,
            -0.2910524321321812,
            8.334589411245084,
            5.783968832810163,
            0.7277973660968735,
            1.1026869348894746,
            -0.15461131208185527,
            -0.4414734969008217,
            -1.0621002671952893,
            2.006309887573683,
            -1.4784511531526916,
            8.478976376674918,
            -0.054416574741267376,
            -2.9343926326890837,
            5.4909454861022535,
            -0.43473729081528045,
            0.587751845057072,
            0.624361121549055,
            -2.1455642373643076,
            -1.29632240577985,
            0.9570399834092711,
            -1.727062413142545,
            -1.2249645094331898,
            -1.6475325588219856,
            2.1627324157468424,
            0.07273666240537091,
            0.4000781237276062,
            -0.8871930899848538,
            0.7512692967250575,
            0.7475540217765616,
            -0.25974583747802504,
            0.9380132746224358,
            -0.5069372639879167,
            0.046177842184881926,
            -0.7933131113475609,
            0.7903463037947691,
            -1.8377627235893779,
            -1.7386270460684916,
            0.5959897559252468,
            0.29096424146903904,
            -1.067869288689264,
            0.9339898647128386,
            2.348467725848024,
            -0.7588406269179323,
            -1.2639793121444176,
            -0.8001440746707548,
            -1.0127362252495065,
            -1.5341693838291783,
            2.271859696092051,
            -6.259194654343159,
            0.322680007640884,
            -2.2242776225351375,
            -0.3438155086881503,
            -0.09628593033560601,
            -1.212487137257232,
            -1.6596960845031354,
            0.7091027940579586,
            -0.1065848389091515,
            -1.493522948259975,
            0.7499893531872561,
            -0.23112525655204202,
            2.547559422656845,
            -0.5646741321083759,
            1.4586878910305103,
            -1.9933888344664659,
            -0.3990803982967035,
            -2.300857950106513,
            5.163412458344492,
            -0.8314657722780142,
            -0.5717926743350605,
            1.1269837411636563,
            -2.906700842856919,
            -1.847987697194037,
            -2.4263761353918953,
            0.4398157354562137,
            1.4099814945824485,
            4.919924824578726,
            0.02141206579492605,
            -0.04167906148085963,
            5.458918325573007,
            -0.43331854352234156,
            0.7082113886151487,
            1.8352214701234244,
            0.8224236728663988,
            2.4116769598173815,
            0.35344658492167524,
            1.0517580940604612,
            -1.226091278395502,
            3.516887813281126,
            4.201088446773466,
            16.61811493138351,
            0.3025964882898206,
            1.3402235888035037,
            2.8853438848277815,
            1.0522262376243106,
            -0.5133672548620223,
            -2.1317382563241947,
            -2.3331913409188156,
            5.6504966052138785,
            2.5271880825001065,
            0.0900125338948569,
            2.835084134486052,
            2.6861797595438452,
            1.4134749468642234,
            -4.2666545966691505,
            2.7726966584714545,
            3.1665263423410597,
            3.858354374592415,
            10.65161845967297,
            8.817451630232144,
            1.9160782348580319,
            -0.6871510449230851,
            6.89381404203397,
            5.47606312524962,
            15.935130100510062,
            -0.007597273876982445,
            -2.230619474808914,
            1.8181873948529246,
            2.141600565923221,
            4.962702664795566,
            -0.1499101732248851,
            -1.133185374594616,
            3.5016872936790233,
            1.3435693804406577,
            6.008901455453071,
            1.7237647094521138,
            1.594364425868701,
            -2.5529630843456474,
            -1.237671107985743,
            1.826140608087119,
            2.7710518507307658,
            -1.3546558330217773,
            0.9448064314206455,
            -0.3368406154340737,
            -0.49817467702452,
            0.11524240693233852,
            1.0604922500110974,
            -0.45592704213084995,
            13.129711393500633,
            1.4475114897526038,
            -1.0780684503893612,
            -0.863478688022461,
            0.5152219630523411,
            -2.2636640776724906,
            -2.42702635228126,
            0.04302271205322481,
            -0.1290521094194248,
            -0.09333410338856597,
            0.8544393578285077,
            -2.407841360680453,
            -0.11873203494581357,
            -1.4618000286266661,
            -1.4300181797007727,
            12.493823907165785,
            -2.7337536577367922,
            0.6739703307282218,
            6.994797925450235,
            0.25685102416181244,
            -0.12283314608068441,
            1.8468837137616747,
            4.612370900279228,
            -10.21059728548969,
            -2.264420722114884,
            -0.01969571508411582,
            0.481926915246559,
            1.2690746280604994,
            -1.0345311485177666,
            -2.954157752223134,
            0.8883091812710073,
            -0.5515223538853636,
            -1.0426183279389165,
            -2.7870864473106978,
            0.13097453855856298,
            -1.3269825527673291,
            -0.9540235428801491,
            4.6599396629985,
            -1.45102162078216,
            -1.9347138399411774,
            -0.7089002394741771,
            -2.5270904632515245,
            -1.838955211135278,
            0.0356980955396792,
            -0.3519993384728097,
            1.7242284337700629,
            0.12988320700909936,
            4.662376100156138,
            4.241140565691724,
            -0.08445105019771433,
            1.0080481705340858,
            0.5195797961337941,
            35.81730198120726,
            -4.940285343465864,
            -0.31685364517704745,
            0.6439027728386842,
            1.421770149478599,
            1.2592174854620046,
            12.617758020278659,
            -0.8174591851640944,
            2.665981035944263,
            -0.48761675903764606,
            -0.1505383536891014,
            -0.26058946111739545,
            -1.0922364520829413,
            1.318478175365318,
            -2.0881328106759627,
            -0.4458617495147871,
            0.4530282651165921,
            -1.6407549021905832,
            1.2893983719425754,
            1.5807200098417589,
            0.07662800740148362,
            2.075583894361495,
            -0.7614659840044339,
            0.7735701563669519,
            0.9910910227314325,
            -0.14638466962300378,
            0.3272531963235658,
            -2.2184364853723086,
            18.236889792975894,
            -0.8262591796687128,
            -2.044624348475365,
            16.973962600101068,
            -3.9874721118125653,
            0.8495472783123613,
            0.11197201782198601,
            0.21107452631139517,
            2.073683921514191,
            -1.13589878932988,
            -2.65326256323083,
            -0.7677908613747084,
            0.3477455912387089,
            0.5228605926001009,
            -0.28289838719683047,
            2.768273741852912,
            2.0653880601146426,
            -0.12988155653199504,
            -1.2238604008436227,
            0.5276968662175551,
            57.94121481171958,
            1.954365084533146,
            1.6482832909871383,
            2.1831873012414658,
            0.6663022068974185,
            -0.5880718764294738,
            1.8903634229689523,
            0.11537346298330571,
            -1.4347549746706674,
            1.0030899925484982,
            1.3894824472875993,
            11.360173675778432,
            -1.7388062238617348,
            0.9501889003830343,
            -1.1543876021527701,
            -0.8999172816069796,
            -2.5677402053275604,
            3.566680918683492,
            -1.52224697554743,
            1.8600641899546977,
            6.2092078027173,
            1.7754608565432521,
            0.05309072796371576,
            1.2867337183544418,
            6.854003134411519,
            -2.305660563831748,
            -0.49214399119739377,
            1.3845813919115508,
            -0.40860453232865285,
            -3.562913757938022,
            11.588474660781761,
            -2.066347709461793,
            2.1136129476290697,
            -0.07576927796665249,
            0.2590416727768385,
            -1.828399504518607,
            8.31111269991972,
            0.5335712746560479,
            -1.2497983744555652,
            1.1047145447190492,
            -0.14313036204348364,
            -0.17052973805762417,
            5.116458422345944,
            1.5494262154398506,
            2.3286917694672864,
            0.7010467213649972,
            -1.2054875925237618,
            1.5910935085032216,
            -0.17458334022074432,
            -0.07793918440645546,
            1.2066199498107388,
            2.342492052651656,
            13.706139741731045,
            1.8430956304692672,
            0.10422090844580502,
            1.478376690599237,
            0.06764451813701754,
            -63.30691696582655,
            3.314261608140584,
            -0.8619437518922212,
            0.8762718466146415,
            -0.8900696985354516,
            5.073755110636335,
            -1.807379371855772,
            2.2812732180097464,
            -0.8548971823389588,
            0.19662097745741056,
            1.490710593455107,
            0.957977636252119,
            0.6724415498228352,
            0.7202041957851043,
            -1.4721523824558842,
            0.9657710896771204,
            0.520268712252882,
            -1.6134454748805416,
            -0.24516217172627713,
            -3.675565263350099,
            0.9593559863695639,
            0.9300424818202255,
            -1.1371202358817316,
            -3.580644928833145,
            -3.083678661422927,
            0.0693298445693499,
            -0.5153827709867465,
            0.11609722455300565,
            -1.7744156417996488,
            -1.695882228450955,
            0.014897731195721148,
            0.6599849325895141,
            -4.483624028904004,
            8.860430728900525,
            20.98124881878666,
            -1.2450781060015688,
            -4.149531267021513,
            -1.6368612130748847,
            -0.31310233973220547,
            2.1743436531456735,
            0.6138876919526378,
            -3.314640974330279,
            3.8621188115152094,
            -0.6421017028932259,
            0.6628798738417581,
            8.538755307683154,
            7.039679451089888,
            -1.7404885031696287,
            -0.868805516769362,
            0.8443907613123715,
            13.594914045508824,
            -2.579038286650135,
            3.9982043262909,
            2.121322989054385,
            0.38339653973259397,
            1.005310290075223,
            1.122225684727002,
            2.2876925184412453,
            0.9886085550657786,
            2.6699303196206743,
            23.624172471244755,
            14.36156560275898,
            11.046048759957797,
            -1.279664211774707,
            0.4274249315836796,
            10.393479785442375,
            14.381705895482733,
            7.287772804352941,
            1.5468572248401822,
            2.4860634644736814,
            11.440251474050745,
            3.7250638164718586,
            2.324564787697721,
            1.6064511046119758,
            2.795300611888868,
            3.050585504992016,
            1.7792251998212172,
            0.6840952062115374,
            0.7857054641009583,
            0.4573162013343602,
            3.6820439448123077,
            2.739215864528883,
            1.9151873742504262,
            1.427359236789971,
            0.38672981846081017,
            1.0194621446044747,
            1.0034383854477227,
            0.2267120244084869,
            1.6658820143717064,
            1.2840228377150569,
            2.495724494022164,
            -0.20959322640244085,
            45.21918756833528,
            0.040901187820546296,
            1.6068653470036391,
            1.5411548991276338,
            -0.7404017637235031,
            0.43609145495954044,
            -1.1540510888926967,
            1.4022400081679791,
            -0.7002096063734266,
            0.6310655005687748,
            0.576203441735291,
            1.0806267505909044,
            -1.2556580150523027,
            -0.5578210751687871,
            2.27647062132355,
            2.1374945122301123,
            2.105089405770979,
            0.5692478354956009,
            -8.500844999336755,
            2.8276551492257918,
            1.9797530634939977,
            2.9017645427778724,
            -2.449313585362031,
            -0.6563258399679999,
            0.9734298269973385,
            0.8609648980333868,
            0.8028596015774402,
            -1.99800787975788,
            2.210162642860052,
            -0.31097171951795755,
            -0.5093276843030426,
            -0.5955817612221787,
            2.2456742686464266,
            1.544134336726325,
            -0.8224073415171566,
            39.83373731193114,
            -0.15437210403929258,
            1.5660206436600614,
            -0.7579970705924366,
            2.1066485821302767,
            -1.12296511020009,
            1.540436289958007,
            0.006671623727463226,
            0.8201796011110843,
            0.597785888248231,
            0.03625296295468678,
            -0.46842018375225847,
            49.20828521212622,
            1.2950476039888743,
            0.05384750225614218,
            -0.3847443080636603,
            3.030301035290569,
            -0.5444574010859502,
            0.8804784922257198,
            1.0680806832689989,
            0.11433505108239823,
            -0.16823998611004115,
            -0.4774359077081814,
            1.1893877703244222,
            1.9418728334704012,
            0.5958346906951213,
            0.5821141065627269,
            0.8184263883967182,
            -0.037424694657302714,
            1.8398775109651335,
            0.853808443780269,
            0.9308473294126789,
            -0.5799775611990896,
            -0.44308576727337234,
            -1.002395592793235,
            -3.5497846042815886,
            -2.189182383528,
            -2.176845078669059,
            -2.3682919464083874,
            -1.5194134133718873,
            -2.3003315447269626,
            -1.342981204362061,
            -2.077518729002425,
            0.09578963071029196,
            1.5506239433763003,
            -2.408729050095044,
            -0.9294893041040706,
            -2.528602569945384,
            -0.19159166217197374,
            0.9255925563695026,
            -2.476645718683211,
            -3.0149527916467003,
            -1.3463725287322932,
            -0.6539290931627005,
            -0.33110896149683455,
            1.9225162106927887,
            0.09356347335941448,
            -1.0518975604313536,
            10.549314573512317,
            -3.2449810616680983,
            2.284448083935075,
            -0.9265034438998383,
            -1.3328739334450945,
            -0.7070445258172535,
            -0.23469028083108767,
            -0.3006392783388297,
            0.7104129272122819,
            0.7332785069541656,
            1.0528910522684025,
            7.526830185173145,
            3.5492777315620425,
            1.9008689684352051,
            8.514826874896329,
            4.248565259411784,
            -2.555466864010154,
            -1.0909995196298081,
            -0.717319478278296,
            -1.502042950956993,
            -0.8771897571122378,
            3.549023034016061,
            3.5024789298721637,
            -0.721652967448626,
            2.6471429694196593,
            -48.111361729595124,
            -0.7115478730896264,
            -1.5399444725544256,
            2.404210169330375,
            -2.5594910348048674,
            -4.290993177344894,
            -17.69796745021453,
            1.2678840247113503,
            0.613748142478752,
            -2.1228184220233612,
            -0.9783322918961215,
            1.5913482510177563,
            0.923126268156095,
            -0.05294318285733019,
            -1.561006696019611,
            2.412003102261713,
            -0.26133313430587607,
            0.08611107371959452,
            0.9556024935628217,
            -0.42680272235533134,
            -0.545282869819848,
            -2.6327497727100315,
            -1.7865446248739985,
            0.6093215337932645,
            1.9109574835689895,
            -1.3449436907837233,
            45.21075072798543,
            -1.507319642882551,
            -1.3584650501064277,
            1.2159324925312849,
            -0.6897296216479981,
            -1.9057869861467944,
            -1.1025635629327635,
            2.133330706337777,
            1.5961276210724147,
            -1.10007912689069,
            0.005612160951632705,
            -0.06952478841024679,
            0.5575068913980867,
            0.4737507744268257,
            1.3919293642969919,
            1.487174186061802,
            1.750933302957594,
            1.5904436698593007,
            1.0525119026536793,
            -0.8610777753597569,
            0.3390686138298046,
            0.4306421511890321,
            0.4742738107380044,
            -0.5977162604622321,
            1.7612017337706087,
            2.1627150437431237,
            0.4010541217833168,
            -0.10909019700583301,
            0.36376131201907647,
            -0.013396698504377596,
            -0.19815488299265505,
            -1.359313865237496,
            1.7477880999499287,
            0.43416440956340796,
            2.698400636221649,
            63.457427193314984,
            3.601528064716385,
            0.9878970584400274,
            -0.2292301580979433,
            1.8808458544781652,
            -3.831684980682114,
            4.0163471320221795,
            0.5209116826945195,
            0.6787858140059618,
            3.077544722313574,
            1.7191489378836917,
            0.7944273281609529,
            1.6155795194148515,
            -0.8856832464142798,
            3.7424877903212286,
            1.7081931442295955,
            0.8545838383800605,
            -0.06063179534948205,
            -4.240943556224087,
            0.11870623764111397,
            1.7185409794437894,
            1.3754708729951428,
            2.784251681687665,
            9.932382044356144,
            -0.7824387938555091,
            -0.9748926461392982,
            -0.5243300232928726,
            -1.7682420003991255,
            -1.2536200675857436,
            13.35813989774829,
            -2.0018778975016476,
            -1.1633664685190068,
            -0.6603881083638337,
            1.4939678191468777,
            -0.9423695047622223,
            -1.5361694616552302,
            14.396038847458282,
            -0.004274745598824067,
            0.14499569280928346,
            1.397399957349606,
            -0.2658449334497091,
            -2.6280524838185313,
            1.5858530397753428,
            -7.3322444545175225,
            -3.4497532357431995,
            -2.8980174473959672,
            3.917796676049422,
            -2.9940337114925057,
            -0.9787120402224145,
            4.1441373834689275,
            -2.1136619277821813,
            -2.2297318097044205,
            -2.664954478678631,
            -1.095569571752095,
            -0.004465632639773805,
            0.025582724567104066,
            -2.912396166979816,
            -2.064443425873213,
            -1.7994926628662364,
            -7.0919656959823465,
            -1.565259088381324,
            -3.796441181768784,
            -0.6672184599984353,
            -1.372891141468848,
            8.356805476332683,
            3.087736793315125,
            3.652174323413108,
            5.614477998134112,
            4.224112364774761,
            1.163797172708946,
            2.1426112045175403,
            0.7529589326527336,
            22.23237493351304,
            0.3809888539314674,
            -0.4890321966972834,
            0.12359708186035007,
            -2.072109449462299,
            0.09963451449976413,
            1.5223824433349584,
            -0.9097463678089232,
            0.36572616121951507,
            0.6212213733115852,
            1.3198505730899242,
            -2.194314402728068,
            -0.32162063781936495,
            -1.1287028911026704,
            -0.362365769924746,
            0.29854176547487066,
            -0.9288974083091597,
            -0.010636373493789663,
            0.4520233408506802,
            -0.327214673109478,
            0.15047287630874934,
            0.17721481850217766,
            1.2028468626609046,
            1.1345101969161593,
            0.8963723413696256,
            1.9078200914387893,
            0.9637190726423972,
            0.10621913292104719,
            -1.1552142538937977,
            -0.8554083437711284,
            0.36184399749273866,
            -1.3427636055370955,
            1.0607743423159968,
            0.7245504528022201,
            6.185946119012029,
            -2.041440286745175,
            6.620379751356404,
            0.20309816546368833,
            -0.7961839422329213,
            -0.6107981450591287,
            35.28557169208883,
            0.1518721686538138,
            1.7305380023996053,
            6.6033120655619175,
            3.705441235572135,
            6.9072372395092785,
            3.2356414740635038,
            6.5457530165207105,
            29.603214155866848,
            -13.287219961735849,
            29.455918428176926,
            3.712935592469824,
            -3.171139827357743,
            4.232359636116063,
            4.178988765393277,
            3.066337113775684,
            -3.0342926656391254,
            1.515027680429968,
            3.9115850725964947,
            0.6266383799393395,
            1.4079278260514128,
            0.7668952815781123,
            -1.8175893601861242,
            -0.00930187585237517,
            0.38248806512067907,
            -0.06985934237263222,
            -2.6665388872540685,
            26.40643525408171,
            1.8819285494193794,
            0.29786605406052535,
            -4.390830565283334,
            1.6914813651353637,
            1.6331636800922473,
            1.1024095083349372,
            -3.385173496887154,
            -0.1174111170647085,
            -1.1939510338350066,
            4.343819534691365,
            6.710252873839593,
            -0.9562577717415371,
            -0.9114906995081918,
            0.8898930973607798,
            11.624805855254602,
            -1.5723002896789948,
            0.16559797871187923,
            0.1522433146720543,
            0.2378539116535563,
            0.5232823905077085,
            1.3591173374354484,
            -0.3740098659454294,
            -0.44619880818081664,
            0.38531656162783084,
            1.4167752598336376,
            -0.5483695862912848,
            -0.3114161150860628,
            5.360722019761938,
            4.28966096742349,
            1.543718194712346,
            -2.3327155360447533,
            2.0293866034287396,
            16.748958968610896,
            11.555214749040148,
            0.31967630174633993,
            0.9105003694352014,
            -1.5738712575083962,
            13.138655787417767,
            -0.6927864085063303,
            0.6845188369121363,
            2.293321816848079,
            1.4445478677560395,
            -2.1191573506191976,
            0.3004539713877017,
            0.2991660231100133,
            -1.8688917483630711,
            1.8229046160638924,
            1.1559633865883232,
            1.6846628304034865,
            -0.3576444870235383,
            -0.9323599356329717,
            0.14774339492293512,
            2.096990947187284,
            -4.305805489753837,
            -0.2866485108273121,
            1.6139939237915588,
            -1.3470063163677644,
            3.422780161108864,
            -0.07069928808300754,
            0.06182320708932529,
            15.108605255661908,
            -5.183994231173268,
            -1.7799902646793573,
            -1.0353800743237593,
            2.904727174824475,
            8.374990328901077,
            20.569312590536867,
            12.40170505102693,
            0.9712456131699035,
            5.01432614983775,
            0.7670330827676601,
            7.966988970890139,
            1.1343850490515532,
            -2.6938144649030638,
            0.0902839131693737,
            2.0217675933780326,
            -0.07700568156620144,
            0.8622364616186494,
            -0.7035230037714969,
            1.2326819553113963,
            1.5414116663707755,
            -0.06740401661621137,
            0.507694141636686,
            0.21843177690904877,
            0.8391926463406231,
            4.534515541041463,
            -1.3756858046741147,
            -0.48668622341385764,
            0.5474307696759753,
            6.781942991669563,
            -0.7268494252154162,
            -0.16730941303513963,
            3.9669105134493092,
            -0.5332163838844022,
            1.872818656599541,
            -0.2994447878191978,
            2.0379738247872266,
            -2.1751080272440126,
            0.8771936960801907,
            -0.32894258174016244,
            0.09936866190043478,
            14.43727194036817,
            -3.8631308464460594,
            13.242695998723088,
            -1.8686491942541021,
            0.15460877983268284,
            -0.8620185746032784,
            -2.766729640228799,
            -0.6711497799108795,
            -1.3075091089416266,
            2.0527679200725118E-4,
            -1.6388281613413713,
            1.6286723245748673,
            1.5424616021694644,
            14.527049139531274,
            1.1714471494140073,
            -0.6325880853692674,
            0.5057882792696872,
            0.8924358705502645,
            -0.6759918460181642,
            0.4027052372345152,
            -1.014862929596496,
            11.811849068172595,
            0.07421432729908635,
            -0.24719480217732398,
            -0.8152845958180706,
            0.8839310224408087,
            12.970021840438715,
            10.378189461945627,
            -1.5880166497794754,
            0.6868514790775396,
            0.3350626919088047,
            23.146645918783083,
            14.365966567830625,
            1.7976548067251155,
            0.826461399036115,
            0.25788320802829373,
            2.414750842575333,
            4.2587985990254005,
            0.28835699739341975,
            -0.30712558687733954,
            2.314572672748127,
            6.234264291823347,
            10.63603825596224,
            -2.0180866084259828,
            0.026966838445719416,
            -0.5886792604561519,
            2.741029199643312,
            3.9343774811230903,
            3.9201497107935257,
            0.30778233802197885,
            -2.6279764820272997,
            1.9738313289797664,
            3.7921532704236967,
            4.219982086994126,
            -0.18577671035346874,
            -0.039755604001384004,
            -0.873347956744757,
            1.6965844891328339,
            4.0824072782859036,
            4.917945412067272,
            0.9105233242407796,
            0.8699602828897957,
            0.28606932892714426,
            13.025850617732663,
            5.232406386514717,
            -2.50584886438788,
            -3.9073966324867264,
            -3.362120427093672,
            3.0828802268073527,
            2.154740156478771,
            5.317005851502093,
            -13.409586739154493,
            -7.39953930066046,
            0.4824065345523791,
            -2.0800649183914137,
            -2.0754534416737327,
            -2.311087543283973,
            0.5127005869504925,
            -1.0206459883340282,
            -1.5055504545409977,
            1.0956768600682114,
            -1.0953784790653516,
            -1.5539867567557546,
            -0.9988883628046326,
            0.7576248851326771,
            -2.6417260724373177,
            -1.6989706873367918,
            -1.2480640299483203,
            -1.729365317796587,
            -0.11394438936595469,
            -1.132896494265445,
            -1.0453506644065496,
            -3.245477002687261,
            -0.3218875817677074,
            -0.8705399442168505,
            0.6545305376726828,
            -0.9116101307390124,
            -0.8645416497593066,
            5.851116871886244,
            2.0154261479850617,
            2.985508069960667,
            0.3132196935958266,
            3.2494077867301403,
            -0.9749775465004792,
            -0.055027107666037925,
            2.147491378673908,
            1.6330766903891247,
            2.4365987329985503,
            0.020754767982009828,
            0.9944638652635257,
            1.1795233854536742,
            4.3873544172459855,
            1.8857513001390749,
            2.714416162940643,
            -0.9656608686900683,
            1.9446419908998323,
            1.2133859402902716,
            1.909903482961068,
            -88.28884247052471,
            0.553882716793945,
            2.064807154202083,
            0.8328228251027373,
            3.3134393739420664,
            0.35663417503856787,
            0.7731294795068209,
            1.7066595621369078,
            14.473620015070413,
            0.4081062476419738,
            -0.12053524842934335,
            0.04329952088580005,
            1.5299856206743565,
            -0.6022034081300783,
            -1.1983169016077464,
            -0.598201284938237,
            0.33006901998822397,
            1.513301751435814,
            -0.009672291779158735,
            1.7326291683897475,
            0.19264547687175906,
            -0.9172277655667777,
            18.26022692479312,
            0.6950044893441847,
            1.3175217306212523,
            0.9928029531054933,
            0.6643720652980362,
            -2.0086449634025447,
            0.9614092568534657,
            0.3068631154779722,
            -1.2334300478776863,
            0.4884238180833554,
            0.07393474250182402,
            -0.19473390875172883,
            -0.7779975421587477,
            0.22959904817025628,
            0.8962229678255812,
            0.3289798015340168,
            1.0345484739270123,
            1.2922534260574103,
            -2.3329388497066303,
            1.19084212251432,
            0.30153073749663084,
            -0.7334485833895222,
            0.6844877513570763,
            2.35469876803124,
            -4.293586856792969,
            8.867521314680896,
            0.8130090464474888,
            0.34336679715992535,
            2.9973859526838096,
            30.853390519876665,
            0.3099827472491699,
            -0.5332684179472162,
            -0.1620806529497106,
            -0.4202721305916931,
            0.47996346761395686,
            1.7457858282522938,
            1.92339513618334,
            -10.816514421619152,
            -1.0847675847196603,
            0.5916516025384496,
            1.211484963467882,
            2.2676207789490346,
            0.4378676197835285,
            0.3195423363432149,
            0.16433437044971524,
            -1.0223460406763616,
            0.8372034115161641,
            2.813118026485903,
            0.27929646910114375,
            39.604886033973436,
            0.5986755109660274,
            0.9716188296037226,
            0.7220551318608054,
            0.8787764246399494,
            0.9827026013095298,
            0.2913538610675007,
            0.25094315984698157,
            -0.6275353732199482,
            -1.55419024495756,
            3.31491725734485,
            2.4912566108025707,
            -5.012536273620369,
            5.643915313245619,
            3.6708335460906323,
            -7.479394561778493,
            -1.2542171319837039,
            1.2651759339382593,
            -0.9544434452234266,
            0.5828192414994988,
            2.172790320876983,
            -0.24310084206265717,
            1.1463471178813351,
            0.6362789843220557,
            -0.4612891991220455,
            1.416215730495566,
            -0.7786238729979408,
            -4.045594495938979,
            0.5822426642396836,
            -7.354299820430916,
            0.25962171592143823,
            0.2606334400817127,
            -1.6121754253574005,
            1.9010293205857434,
            -4.087235814448348,
            -0.3252346591416018,
            2.374830527556946,
            1.22732881034606,
            1.0475612532209242,
            0.518271212276328,
            -0.3919482521889556,
            2.761741006911245,
            -0.3907995786390289,
            -1.1751673551196598,
            -1.8880639947131614,
            6.477425860992983,
            1.4010002660833343,
            -3.3597879916718942,
            3.0568398948467634,
            -1.297899141019406,
            0.7599699731759835,
            -0.40344985488401913,
            -2.02188904330195,
            1.2167165088879133,
            -1.1164160592287564,
            3.600668579835692,
            8.004907585132678,
            -0.6066601260608977,
            5.526627236763087,
            0.512745142049019,
            1.452233606763848,
            2.6699953591828347,
            2.816585637787249,
            -0.2592127160196085,
            3.011591310280247,
            -0.8607261903803075,
            -0.5054244155420761,
            1.3542589114129435,
            -0.13800120063118895,
            2.6629126451738814,
            -2.0088501695548833,
            25.771950823008677,
            3.567499398049042,
            -1.078674100332606,
            3.4981300658955075,
            0.5582528950032271,
            3.4122795175664264,
            -33.04025344269335,
            2.9796604989447433,
            2.060638850394104,
            1.5633079924199023,
            3.198251744500927,
            1.3846083357967014,
            2.3165566427472633,
            -1.4426160273752473,
            2.0139942449248385,
            1.4270523320653026,
            2.414899280501023,
            2.1566422634804634,
            1.073177758691031,
            0.8896543004025285,
            0.37389399796793227,
            -1.2937603891692087,
            -0.8272895601354273,
            -0.08590757351282798,
            1.3814731290297462,
            -0.13325082063996696,
            4.4990018264366665,
            17.642148697344407,
            1.8017822664151149,
            1.1628181196459024,
            4.083900235150236,
            -36.456853114563756,
            4.1544428143985614,
            -3.012476296685594,
            -0.5397818050709524,
            1.9348267383831352,
            1.3453687933275218,
            2.56910909419176,
            0.35549510446389837,
            0.5066044771721593,
            -0.737047919700432,
            0.14293315375551766,
            -3.1364520994441842,
            0.2916296310471604,
            1.195192340982856,
            0.0882537787016714,
            -0.28431402871333333,
            -32.731469341311765,
            1.1834977486909548,
            0.626582769259182,
            -0.4323917774195225,
            6.417450839995677,
            6.587908621570773,
            1.3524558487993004,
            1.1109897752558244,
            1.2931965574021338,
            2.3116575129071224,
            19.95334587665456,
            0.32310559831362323,
            0.8473549546650971,
            1.6355709366700097,
            5.093465506908016,
            3.458592589593904,
            1.8294734745310115,
            4.166987584332555,
            3.082235218797141,
            2.7970893595624333,
            0.992388648210026,
            -1.5855945005831003,
            1.0024875775798128,
            1.7270444810362748,
            0.9877194863349873,
            3.7856357357831802,
            0.24405457885099116,
            5.158536443659374,
            1.859829515833928,
            -0.2840442397808278,
            1.6136870051991306,
            1.9752429398183693,
            -42.79743378990895,
            6.628390648007547,
            -0.4951787987339359,
            4.9789219038271355,
            2.3164341569627016,
            3.562939951821602,
            7.80554187279805,
            0.5208502657197855,
            2.64154488120532,
            1.1173458256550923,
            -4.829043786430079,
            4.4234200846904494,
            -2.2162404824337516,
            -1.4137539010358422,
            -2.180582691095671,
            -5.3733643655211205,
            36.40762654662593,
            -6.812463396383806,
            -0.4484292279816665,
            2.079499076625968,
            -0.9120572853184381,
            -2.7099822123229758,
            -2.2759338420227637,
            -1.1131606389654605,
            -0.4710993186590308,
            0.5097661801133432,
            -0.7796762984264661,
            -0.26794271105532047,
            -1.7090665346886214,
            -2.070767400372853,
            -0.686167042883525,
            -2.16956874269858,
            -0.2786643249178977,
            -1.4367553827686688,
            0.5712462779915689,
            0.5182097617653156,
            0.7391739297778103,
            1.2616017646558886,
            0.7148181027696352,
            0.8774476407160895,
            0.22963151925380718,
            0.4507369600016471,
            0.4402552186532502,
            1.1970633575132255,
            1.5506542939571142,
            0.46316521488778006,
            27.886628931505538,
            -0.14866427224311438,
            2.4717544532614957,
            1.0567121209035606,
            0.19693998711888636,
            0.5105564849885106,
            0.02014205194034723,
            0.7972479555179757,
            0.6591096325196047,
            1.5255084503643983,
            1.1690762372286405,
            1.5283321156421112,
            0.33628272690157723,
            13.428728923972136,
            2.9248804850640697,
            0.027915538275424014,
            3.473434054871655,
            -2.806216926995949,
            2.1178805003163155,
            1.7900679303342881,
            0.9801964378484708,
            5.648863302930063,
            1.8211649037596689,
            1.1076679037708839,
            -0.42949853745708033,
            1.1137138124829102,
            -4.365609517831343,
            39.09973777439691,
            -0.8467840446698224,
            1.339227818549163,
            2.6399617815490553,
            6.347495369350039,
            -0.26784432000057634,
            3.2086402180059945,
            1.0602475478042281,
            0.8400744541337263,
            3.826594337535346,
            0.25041958821543964,
            -0.02296253695763706,
            0.6712504236063752,
            0.6114084013484344,
            0.9221635873636109,
            0.9361205289812242,
            0.9016955173092156,
            0.3636827258356607,
            0.6467217166080291,
            0.6676475072585015,
            -0.6499621751527663,
            0.5622860337399588,
            1.8409919272834905,
            -0.45036177950279843,
            1.348622095387643,
            -0.8529784213009091,
            1.2772039359123413,
            -0.8053206602300964,
            4.525982186431115,
            -0.8913256578501221,
            14.00593756186284,
            -0.25087481091670905,
            0.2664339703378393,
            63.048077194729295,
            -0.8605748923021761,
            -1.032894163900165,
            4.438056450266192,
            1.2164071727617114,
            1.438401499099452,
            2.461735642500947,
            0.5574345234577752,
            4.3378214705321385,
            -0.7250991782002163,
            4.808599547598623,
            -26.56891493090764,
            4.68009882477037,
            1.6386228570903627,
            -0.06845986816779201,
            1.7497041486705933,
            0.3466712894165698,
            4.299029497851625,
            13.706266210056684,
            3.099254003974909,
            4.205516704367779,
            0.8752576462720646,
            4.145618393640133,
            -0.8948787863460081,
            2.1490294167396633,
            0.381006116025668,
            1.7075621411342203,
            0.6243714820641812,
            -0.7340965558551482,
            -1.2427543250548236,
            2.1377880740125357,
            1.6182569790894683,
            -0.723488326864147,
            -1.6390122866953711,
            0.9460047280263192,
            1.7533951025637065,
            -0.09583215452406388,
            1.206062273459725,
            1.762179124064449,
            0.9009094821575802,
            1.4155043085621453,
            -0.3446796908266412,
            0.16254938245173783,
            2.5115607784715426,
            1.4744710506741086,
            6.778964202817655,
            2.0238404369523098,
            0.7594451890325713,
            4.037942235101164,
            -1.73180102697608,
            11.891659398404324,
            -54.50624280501315,
            5.925268915271323,
            -2.1019637116352934,
            -2.261265081398351,
            11.266084400127793,
            0.4475623945657487,
            -0.15886404079212388,
            0.5702306566092551,
            -2.8959058780341187,
            -2.0243804622964134,
            0.27156468269440753,
            -1.562740372489914,
            -2.1215771789073763,
            12.865835698589601,
            -2.0405411226119523,
            -0.9167593111998426,
            -0.42910852819259815,
            -1.940473266175662,
            -1.695903329357834,
            12.534839011978645,
            -1.7340821137510474,
            11.343212274282903,
            2.5115663417768728,
            1.2951685879940986,
            0.3212316387536358,
            -0.23653292327699454,
            -1.710902258944534,
            -1.1344176453953168,
            -1.6433642509281607,
            -0.7731851097482035,
            1.7736134737520046,
            -0.002802369170322747,
            0.699496317009621,
            -3.180917674975197,
            6.032285503482134,
            -3.9115949808970636,
            -2.1697331958154735,
            -1.2096380806008105,
            7.1717298638848055,
            -1.4412986552384697,
            -1.2317121816252858,
            -0.4847523904953937,
            -0.3532388057476622,
            -2.474394813281533,
            -1.1097547585430636,
            -1.113597414802456,
            -0.6029412985016956,
            6.930291493236213,
            -0.9440345473160563,
            0.4463305571414085,
            -0.37442345913928193,
            0.06617553464607331,
            0.30832206858598993,
            63.666831436557196,
            -0.3550976844624033,
            -0.9078830150325649,
            0.2012144444765797,
            0.3363206392508172,
            0.8970331806413361,
            1.1058372609262053,
            -0.41989522375355387,
            0.4483947756774427,
            0.8265551778856293,
            -1.6648162473662393,
            -0.3485240090658518,
            -1.1923440081316807,
            -0.48238732442906296,
            0.08320817801162407,
            -1.3490016574210666,
            1.524589126105774,
            -0.5129677628775167,
            -1.5989933298180652,
            1.3529300620548077,
            0.3439087556066476,
            -1.5080798590940059,
            -0.6306215293664713,
            0.5864522155162217,
            2.2832339383573323,
            1.4889140680920911,
            5.179261844521873,
            -0.19879870809762368,
            -2.945077317885234,
            1.7036297124061608,
            2.632393812946065,
            0.3198424545019402,
            -3.694448523460985,
            14.445122306037968,
            2.1328452643472615,
            2.7206216141388824,
            4.0119217648294025,
            3.287833792761732,
            2.3268084166889924,
            3.6014012529716135,
            3.8330370938729623,
            4.753070895357329,
            -18.153942082210875,
            0.41802242577640586,
            4.117806743848373,
            1.426474279354521,
            2.3378771668576905,
            0.7255075753628734,
            3.0339621705922446,
            -3.5398490339494617,
            1.0416073964180539,
            -1.9666414632300446,
            2.151271776969818,
            -1.0356787551044844,
            1.161735708028198,
            2.401578149720082,
            -3.4142269600305957,
            -0.5201646637116272,
            11.920365321780636,
            -0.23223687817834737,
            -0.41407705046424287,
            14.011229965468166,
            -2.2160236345850866,
            -1.945658563785678,
            -2.5560040497887764,
            5.945839302823312,
            -3.79043152130694,
            2.5671385143859,
            -1.116980004976379,
            -0.8987719941260831,
            -2.1205609178137887,
            -2.5904750538861085,
            2.4834759607214636,
            -1.6675146481145264,
            3.026181912689569,
            1.6680344627746784,
            6.541370491254749,
            1.980521851248461,
            -9.161380771608941,
            -1.188957301162957,
            -0.3231012815559293,
            2.9810375509851523,
            3.7198001956602162,
            0.6233136516183618,
            0.5446906888567019,
            -2.2944640414656,
            0.37071713077029794,
            -0.8530489608759976,
            2.754363940891416,
            0.09197490312811689,
            0.06793291693529008,
            -1.2450757644377808,
            -0.20656379663024949,
            0.7997435217583946,
            1.2003250954501492,
            0.4447729064572894,
            1.1865853303543148,
            0.7590475941978451,
            1.471766509553284,
            5.07487731298699,
            1.497030303180946,
            1.6789082753542677,
            -1.0165780144005663,
            -87.17832972808311,
            3.93577204523745,
            -0.5745140785561365,
            1.993584487417209,
            4.559056461345698,
            1.8962647464386313,
            1.643379009244615,
            2.222339077736932,
            1.3391935200567113,
            1.2416881906135537,
            1.5667914822566893,
            2.8335883886988333,
            3.132418348029624,
            1.989982312140856,
            1.071590239105318,
            0.5708826745383042,
            1.9267837970056565,
            2.3703062274686184,
            3.473566236162411,
            2.7495808508633894,
            3.5413116432255003,
            3.6246972072554553,
            0.8539855182035289,
            0.6417640957234263,
            1.4040464741393972,
            -0.17431041678147308,
            -0.7072168550784722,
            -2.039079896619848,
            -0.36767454071678446,
            -0.236830506781192,
            4.34867709795676,
            0.7534747099550337,
            11.776412105201658,
            0.28141515868950506,
            0.5052975351155353,
            0.14629145925070333,
            -2.667741690695405,
            -14.70803386754759,
            -1.4183569423112077,
            7.754880338250541,
            -0.6865290501740008,
            10.906819972787765,
            -6.8249967389605715,
            9.511951707673644,
            4.459360657310731,
            0.6756623053426318,
            -1.0233771394395572,
            0.8864903893086488,
            0.1343476673822714,
            -1.43302135661246,
            2.6124557772753607,
            2.8411533326708653,
            -1.1175055434091479,
            -2.456312562767035,
            2.295534636948499,
            -1.7042245945741554,
            -0.07642079593752057,
            3.21415222889769,
            -1.139431967191612,
            -0.37311836473879184,
            -0.3765062327446556,
            -1.523683540586113,
            -0.7329788692266659,
            -0.5178753227699728,
            -1.802570332197334,
            0.48002086117547355,
            -0.5676115308372577,
            -0.8995886465387042,
            0.8859277925837483,
            3.0464258652331297,
            0.6039363161831083,
            -0.9118878653153141,
            -0.2808945575538876,
            -0.3163443414043519,
            -0.9814390196452558,
            0.492003488193172,
            -1.4064307145111383,
            -1.0975800868461116,
            -2.035961349450589,
            -0.06129403785927433,
            1.1774094299736289,
            1.24598944149326,
            -2.9353294614626777,
            1.200509058134754,
            -1.057548806279035,
            -1.3603197367502,
            -0.23321371201469857,
            0.03406825461589023,
            0.40416072916571416,
            -1.711955101499494,
            -9.159598265886004,
            5.174869289873908,
            -0.37285402812358887,
            -0.5085463205010633,
            47.04801285705656,
            -3.0199868612258154,
            -5.889910699099123,
            2.6253430609528228,
            0.1705799060781824,
            0.41307108367032463,
            9.730145630105296,
            1.5146852861767433,
            3.968382241797943,
            2.312278861970566,
            1.1304208483998155,
            -0.5744884899305518,
            0.686992616068589,
            3.7781416706589654,
            -0.8445455244817902,
            -0.6386595551750395,
            12.582047401521358,
            -0.4320451152357814,
            2.666759569950616,
            -0.01233451632386523,
            6.574789575273814,
            -21.760504604548903,
            -0.02786770771925221,
            5.517802871690936,
            -6.341372409879294,
            0.6271000619524355,
            -2.2384914819356827,
            -4.965828216374715,
            2.3897702190877945,
            -0.8932222056364401,
            3.325841679136666,
            3.4082865109702047,
            -0.4331561585433439,
            1.6793311553604413,
            0.8042615376372111,
            1.1256477160767508,
            -1.7638151812157143,
            1.9634408578215066,
            1.6867005877760601,
            1.6100484177287258,
            -2.7953010381370382,
            2.6684159278244173,
            1.8158343194425444,
            3.8874044825588077,
            -3.236075136636017,
            0.6638024285996967,
            7.06998020968297,
            -2.307001470941073,
            0.7715524337827853,
            9.355023458894422,
            -1.4842646299280755,
            3.7673031513433517,
            2.1141669273979478,
            -0.7748071070406556,
            0.6800888681134418,
            2.8922143957966537,
            1.3740879819226524,
            0.49957689764372476,
            -0.7279515468773633,
            -0.9180147247418989,
            -1.436993802022402,
            -1.2524579881026583,
            0.12529192489827887,
            -0.9114083813721922,
            0.9731558320594129,
            1.227726048865282,
            -1.3207383718782468,
            1.7917262086264931,
            0.058925761128679,
            -0.7329559222648587,
            0.4559009609348483,
            6.883713795406031,
            2.170306524585792,
            -2.174095678203379,
            0.8122542502260499,
            5.593563487958787,
            62.1409499372655,
            -9.81168582511917,
            -19.56369276466286,
            2.6996006649848576,
            3.0779506636609018,
            4.687705435292083,
            -8.917659964338482,
            -0.08013787694119001,
            -0.8170579184406972,
            10.175299317097792,
            -1.1525056405663634,
            0.6619085343323414,
            -0.9108227443699801,
            0.2091387929639435,
            1.7064739754940546,
            -0.5845567644518899,
            -1.0309747712086204,
            -0.5729015686401089,
            -0.34816268468206063,
            -0.683899429195105,
            3.237677048387973,
            1.9474506718830904,
            -0.09339379201987202,
            -1.2817221710255693,
            -0.32504571469953175,
            -0.23687189433758804,
            1.0547863529658628,
            -0.20738236476191535,
            0.08430050472490054,
            0.806069693299878,
            4.909482440737769,
            -1.0490408939392863,
            0.5803218771602076,
            2.227717926705567,
            -2.066315307940236,
            -1.7297817754363898,
            -0.6115900964335437,
            0.6122073962254625,
            -3.158176809425967,
            2.0627894370557187,
            2.811422156332537,
            1.0758300098938434,
            0.08077725041847764,
            0.9566869838677994,
            -1.9040786872327533,
            8.251731080000594,
            0.1347965446305529,
            5.808292890435216,
            1.7091533716664509,
            -0.45682567841649774,
            -1.5289478438833966,
            -0.1282332160313329,
            0.6903106540108825,
            -2.257911028774711,
            1.4141709717609143,
            -1.8609808508611996,
            1.200077850554456,
            -3.828360055112589,
            -4.8254465403048155,
            -5.716312045390662,
            0.7989716195338044,
            -1.8552440595617512,
            -4.662826492259432,
            47.36918504809371,
            -5.536293821359833,
            -1.159980546805524,
            0.7213464272640101,
            -4.291473701116287,
            -7.138257950087528,
            -3.550033283322623,
            1.7145438055165934,
            -0.5083616225104283,
            -0.29191707473810957,
            -1.1117811192205718,
            0.07421946771284936,
            -0.29508949492052483,
            -10.400906059109987,
            2.4931567843157407,
            1.783981697121085,
            1.278370479519831,
            -4.039694327546858,
            3.0181560800694847,
            2.194512311602481,
            2.3510981405219162,
            1.8728072986310262,
            0.19280105587088542,
            3.014106384376124,
            -0.14851340169608374,
            -0.6527454724619792,
            -0.9210722306637388,
            -1.070009030365927,
            1.6515140294236434,
            0.7652847335260937,
            1.6134494047312675,
            38.064467876279075,
            1.7192972116395764,
            0.5736780818406529,
            2.226473618726354,
            -0.5009704361688865,
            0.395466126456202,
            2.7015704687460547,
            -0.37150380265978084,
            -0.5558086115900084,
            0.4674907196268633,
            0.8941087566149902,
            -2.462372518918033,
            -0.3285603150834519,
            0.19896105353465535,
            0.2633753415501949,
            2.1001949591560094,
            -0.37488412949712824,
            0.7933113312042508,
            1.5496800062861413,
            0.8160749983020389,
            0.506021727165523,
            0.08253228986773635,
            6.669290570062337,
            44.18626733367087,
            6.602016076378683,
            1.2840949208643362,
            0.03264484931211754,
            6.754114557656861,
            2.4545178415067537,
            7.616492974669371,
            -1.555871706978291,
            -0.6780880038680974,
            2.3092164790687386,
            -0.3256292162457533,
            0.1249177257176756,
            0.8746984290280888,
            -1.2753253176199733,
            -0.45249662767191917,
            12.01831358669231,
            -0.5103358324120325,
            -0.9396012025239749,
            0.4926812383807036,
            1.8627201233145856,
            2.9964188543105195,
            1.4662618306990813,
            -0.42107380480611456,
            -0.14701239435751948,
            2.180847844009149,
            -1.6988726204580895,
            38.27460818892594,
            -0.6988020552385068,
            0.18821136394522842,
            -0.06944697784840839,
            -0.1717183253196272,
            3.234270019421139,
            -0.3744789994240029,
            1.8689362805261944,
            9.557281974095137,
            -4.495344742540019,
            6.2560994960380505,
            -0.08621857489653176,
            0.5664527895292583,
            -2.1076022380597874,
            -4.8563935913522,
            -5.060281217878339,
            1.9756403124036344,
            2.0225768960343045,
            1.979643319942634,
            -1.1062063539702034,
            1.1441139011952555,
            3.15207511480336,
            -4.797376104672028,
            -0.12440930996189292,
            -2.895654450340268,
            9.693148724274067,
            1.535923732201064,
            -2.8984183271702744,
            -0.9074151593729399,
            -2.274615016868822,
            -3.9587908221974906,
            2.682634702992372,
            -1.3167942292633437,
            0.6826597997706664,
            -1.0506689973102374,
            -1.4936090661541697,
            31.217800800894086,
            0.201412350726882,
            1.744485904056568,
            0.6058654960862244,
            4.7953063712227495,
            5.30358745611747,
            3.7693111331342943,
            0.4903478151747384,
            -0.28613347571506215,
            -0.6810654138050064,
            -0.9242418374834185,
            -1.9429675231678694,
            -0.239190653535,
            1.3535882166156392,
            0.9846257497155936,
            0.7075649320381214,
            0.41109617598890824,
            -0.20737091107451694,
            0.5455860007810777,
            0.5687578806857092,
            0.018473082056585866,
            0.1683936277320487,
            -0.1935904891414818,
            3.0897677840134423,
            1.9483868044091377,
            1.6106363338411893,
            1.080589149194273,
            8.511946326620135,
            4.465174776184243,
            33.42823880203781,
            1.2195202420871054,
            -0.009807580192894579,
            -0.7442380960093449,
            3.552489525419012,
            -2.9297028756902437,
            8.012326878885203,
            0.9672674913038678,
            -0.32276824393420017,
            0.14378989968489858,
            0.0014927169902655378,
            -0.5571107276108108,
            0.6687386524014023,
            0.022715381521109072,
            1.1317232682830012,
            0.6823447890470995,
            -0.22198958767397367,
            0.18818159148420044,
            4.756347499255769,
            1.2455940929393234,
            2.7518855010359693,
            -1.737018990681594,
            3.7238055430623707,
            1.2726490325122564,
            0.11990340735472144,
            4.581246716280432,
            -3.336882366690191,
            1.761621660141706,
            3.6372802808901157,
            -0.4304275165549828,
            -0.9130319054271289,
            -2.2813034562504266,
            2.7093905456480556,
            2.9127532377941505,
            -0.36606332643234013,
            9.202689378604553,
            0.03701019730813178,
            3.9921820063825164,
            -3.0325266519219283,
            7.59534593603007,
            4.634130259919288,
            2.628199799352399,
            -7.084535927224631,
            0.908128486619711,
            0.33689505012647797,
            0.46047290436365496,
            -0.6070285925874523,
            -1.1407106587207667,
            0.5336835760939074,
            0.6663945712989501,
            1.102650621066763,
            -0.7144984568572573,
            -0.44459597811850493,
            48.80401915454413,
            2.817635738844542,
            -1.6355494976099956,
            0.8301057479421468,
            0.9965230785557824,
            3.1471699900735195,
            -0.6263234000118105,
            23.100977197831806,
            1.562632290960188,
            -2.2501221504323263,
            -0.2952212376672907,
            -1.538268654894951,
            -2.03567979444326,
            5.276741832386011,
            -0.3448133026523214,
            4.392090705919142,
            2.811554698871415,
            1.88378450170939,
            3.0913786659099864,
            2.2447923341488116,
            4.158422845437318,
            -10.312477776162588,
            -4.208062844261915,
            -10.135890988091838,
            1.0239636474173737,
            3.7818655774918453,
            4.3833265513261725,
            5.015525022764654,
            -0.32741548858409947,
            0.3080549844048232,
            0.8857667481634898,
            -6.370776418623481,
            -1.4377531286831304,
            -16.064610870327662,
            5.325531261769509,
            2.680753436446431,
            0.3539092608702919,
            1.582403689823593,
            3.485890282629337,
            2.4890308237235512,
            -0.5804731300777081,
            -0.37154090571812065,
            17.73109843259107,
            0.5391383223316015,
            1.1561891950165726,
            0.22762884254867388,
            -1.6684177136625027,
            0.16470456726066335,
            -1.0342109231026466,
            -0.5460874772819612,
            5.039596205842864,
            2.575391270772655,
            7.798007241939187,
            -3.3880930842095482,
            2.424966893123957,
            -2.1719144880341963,
            -5.377650849896693,
            4.602156209491126,
            2.3279635840998507,
            1.8250538640793261,
            -0.8974157808881001,
            0.21625898851152522,
            3.090796167151575,
            1.8105579938873952,
            3.4648904772330007,
            -2.2874589777448824,
            -4.531295265272392,
            0.38490110501391295,
            12.479948848150592,
            -2.222921421285986,
            13.47908720918306,
            -5.607340210894418,
            1.6195459407667911,
            -1.1255538007549053,
            2.244812367462107,
            13.769489646964438,
            -3.8963204773556916,
            15.135056762942952,
            -2.0719626831145006,
            -0.5692008975407217,
            1.341364892650386,
            -1.7639398473568701,
            -1.7564780702025682,
            0.9355872348662184,
            1.136431534393788,
            -2.713461778648495,
            -1.6677623315634473,
            0.4848691674186406,
            1.230956117649003,
            1.523789206250757,
            0.7181032925510032,
            0.29133551221274645,
            2.3873358647107334,
            5.937421519018194,
            3.481383305649826,
            -2.229650477190078,
            -0.803177723459698,
            29.097686732875495,
            -1.1736723977581562,
            4.752860408818162,
            -0.1635218929315824,
            -0.7660465753786577,
            -1.4990664726555882,
            -0.7020160712514633,
            -1.26836178943308,
            -0.6772289460489416,
            -1.2964181399327688,
            0.725965471825823,
            -2.0555569137527434,
            -0.44722702713993157,
            -0.6006107593663177,
            1.5329313627124679,
            -0.8325969614700205,
            1.1918730200392693,
            -0.3290744631994877,
            0.5791147912676653,
            -0.9451990338468094,
            0.4685859739696917,
            0.5539085261483975,
            0.2921773760720904,
            0.36724495973509313,
            7.840482101902354,
            -0.39673965046645804,
            0.3383347768539263,
            -0.26668836739649876,
            1.048718503639017,
            -1.3701103132057508,
            0.6499398883123281,
            -1.0165537083275753,
            0.764810503204378,
            -1.3007697140278254,
            0.3772990724891093,
            1.0686236537215095,
            0.18850355752822287,
            -0.5093051977739336,
            5.079363850842635,
            1.145405577963884,
            -0.3573526469588325,
            0.8249267612572656,
            1.1273743168914998,
            -4.5713315998784605,
            -42.274851796285205,
            22.42646657628582,
            8.646013643554793,
            3.0136878452690334,
            0.21660501602777274,
            3.8386221880535896,
            -4.468819507459098,
            7.133332575516651,
            -0.8511707882941218,
            0.1434014926808821,
            0.3529953818527722,
            0.3221298620548541,
            0.9403111673145147,
            0.2168567803868524,
            1.688312223751055,
            1.2337977511175444,
            1.8759356200082786,
            1.874229343005483,
            1.2075320505748723,
            0.050193169962925936,
            -0.03919389822123995,
            1.840230537725135,
            0.12669202465608007,
            -1.8078194343745844,
            0.2728445107798509,
            5.36427389653707,
            2.114958768012515,
            -4.953441315757266,
            8.803147420470362,
            0.40510546206471065,
            2.5065048207630944,
            -1.9930614543601277,
            -3.968430864678016,
            -2.478086704097145,
            1.5444053239818236,
            -4.558502804888688,
            1.6510220448954207,
            6.212400937240367,
            0.2496150440016007,
            -0.06357006010732513,
            2.4978384633548325,
            2.7897941422749666,
            1.3211246904113845,
            4.556901051224529,
            3.1993849430441643,
            0.8045095672760039,
            -1.319047930551894,
            -0.06313091693934397,
            -0.44357374324778875,
            1.9426123245575952,
            -0.5432101738082475,
            1.5955895275863985,
            0.08526840121847867,
            1.4914688671202472,
            -1.281153936559101,
            0.9093265957852217,
            0.6203436865231022,
            -0.05469299781696732,
            1.7727326605446203,
            -0.10038875985416822,
            1.2825346353617462,
            2.868560282195342,
            1.5501045925015777,
            0.4137940006237227,
            8.843650003783415,
            20.42625778954186,
            -9.417397151183561,
            23.943943271407527,
            5.7299875670762646,
            2.4176220270965136,
            7.613945182543594,
            3.5006667184893754,
            4.315636359912436,
            4.626471057994751,
            1.6678473169401278,
            -0.4259494977082306,
            -0.4975002329578487,
            0.13869519484589937,
            -0.5574239957652892,
            2.075965487277609,
            -0.9899714874826507,
            1.846404323100792,
            -6.258227925159086,
            38.50714865449024,
            0.6642772528940716,
            0.0019883952630247417,
            0.09173493039523795,
            15.652047938345097,
            0.5037652449731267,
            1.2544076979403684,
            2.1636073565634892,
            -2.0630469968619893,
            4.716653985544669,
            2.7529225831495134,
            -0.13053851302526315,
            1.2260659806274055,
            1.2322762088267296,
            -1.000214616299543,
            0.8069413241537469,
            1.6974780918431724,
            -0.29472682829034746,
            -1.5441042492184622,
            4.968009711879665,
            3.9110148716291273,
            -0.3945349606245617,
            1.4512943432658305,
            0.40256268100824627,
            1.1320094642147713,
            0.5687928691023365,
            1.4464701777686322,
            0.12640330885864773,
            1.2175659593601988,
            2.4123824023159246,
            -1.3628321456278,
            -1.916484311713796,
            0.7903367745072019,
            1.4705620293874615,
            1.7332676617603024,
            -0.5547194359386892,
            -0.37794321542437626,
            1.3159475917213028,
            5.801205416365799,
            6.741935011089344,
            -0.668775389232275,
            -0.10801494282185665,
            1.0368915093731985,
            0.7503137535268121,
            -1.4477496695882774,
            -0.10803284506476729,
            -2.3690760074572075,
            -2.265794332714379,
            -11.354614775322743,
            0.9695239085461732,
            0.25053285564686567,
            -1.7439367242686687,
            2.6487021592217803,
            -4.22571686100965,
            1.7909131311933535,
            -0.28561310496267467,
            -1.3842109935916562,
            -2.6503787288701446,
            -4.156327544215442,
            -1.7379781822735492,
            -3.6929056588002003,
            -1.2665236452107536,
            -0.8334398552029795,
            -0.42160516319343716,
            -1.4985145398726294,
            1.8753665844195218,
            -1.6897690611771607,
            4.81305354618235,
            -6.288527596275225,
            0.7224581987790792,
            2.5672128154793783,
            -0.1313599029926457,
            6.486601866326651,
            -0.27326911065935916,
            0.2637329274256568,
            27.032210225038025,
            0.5803141500443584,
            0.9064099378924343,
            -0.19161718758085788,
            -0.2989892518192561,
            0.041998048570788184,
            -0.22164181879066164,
            2.8601723987563474,
            0.1475985156376502,
            1.4555032550457294,
            -0.38153964065369905,
            0.033537361415470625,
            0.8321896602784157,
            0.8023986657368187,
            0.7525332608535761,
            2.0998204256807567,
            2.28449395358943,
            1.22585116243373,
            0.269049438759499,
            -1.0627536051960895,
            1.0967427875175864,
            -0.28770567305985506,
            42.582983123955636,
            -0.17937739065004285,
            1.6758486081205142,
            1.4763624844677816,
            1.077428022370782,
            -0.22088462000144432,
            -0.17758132759164208,
            1.4368103810181214,
            1.7565101429739443,
            -0.7040782517362058,
            0.4989792050787823,
            1.1866328512772575,
            1.5236027507155698,
            0.6046798507850938,
            0.31252011874449737,
            0.9509522892475645,
            1.4527163593011188,
            1.725735571207024,
            -6.972456909621834,
            -10.383066192059982,
            2.4760393498135063,
            4.68055115063122,
            0.4211999453657698,
            -0.8860743872468041,
            10.83898429052893,
            6.4512520029863465,
            -1.2953505394550093,
            1.8323335673916192,
            1.2449002777391247,
            5.653062362630204,
            5.120765696733465,
            0.4082259998988804,
            2.3636362175054515,
            0.08714407823067669,
            14.07568297678919,
            11.038834958816974,
            6.04618813049925,
            1.5667961309822347,
            0.8107059453173983,
            6.213254746584277,
            14.37884369117696,
            2.262231089456129,
            -1.308224655750581,
            1.7265658654967242,
            0.01725403720692517,
            1.2907779992317923,
            1.8075118803681456,
            0.649855885492154,
            -0.9853733278586579,
            -1.5974406574544464,
            -0.4528043426394956,
            -0.581021168426141,
            1.1682079899931355,
            0.16450778476700612,
            3.5636005153048202,
            4.636591583266157,
            -0.911399739646284,
            0.9327314413595132,
            -0.26780671196314637,
            32.95979234567421,
            0.2777444567395343,
            -0.6791324540731818,
            2.630991300137055,
            -0.30614605363242314,
            1.2149011849211635,
            0.6541155064506659,
            -0.5608047420923529,
            0.7622864511424439,
            -0.6566639651331903,
            -2.5610165172005255,
            2.9243175430101855,
            0.33778064008820075,
            -1.0296648841348528,
            -0.9673466660007898,
            -0.39166399476873387,
            2.585317584626715,
            1.1206876278374427,
            -0.4834807539309741,
            -14.523978443693217,
            0.08729416158083107,
            2.111692654368883,
            -0.06390966413743292,
            0.9384147145675658,
            34.665018078154745,
            1.2480362506337164,
            3.261218709301961,
            0.7398362536760117,
            -2.582375941490895,
            1.2148038919824546,
            -5.844519214780951,
            2.553462353484376,
            0.7899229403549041,
            2.675897997565145,
            1.7744163994059565,
            -3.9793532757261825,
            2.884765105019164,
            -0.07498983591063253,
            -0.8502607912375453,
            -0.5466162249347235,
            -9.33271352538138,
            -3.8708457726168564,
            -2.4469521536500793,
            -0.5047421952085958,
            0.35803415706870356,
            7.767502363106761,
            14.041379164654325,
            -4.3610068034793015,
            2.297429287981604,
            1.685047166857975,
            -6.710257669597026,
            6.198423908494373,
            -4.678649179318259,
            0.1999562934650163,
            -0.2982005094062116,
            0.46132574526616604,
            2.1758393919825614,
            0.7899347164913937,
            -0.48769973221751195,
            1.9299607079219516,
            -0.4135755500110105,
            -2.038777647742534,
            3.3867706668920814,
            -2.3391087714224237,
            -4.1422656564280445,
            -2.447275785991684,
            -2.2105769501633863,
            -5.048342244259341,
            0.5306709961845972,
            0.07060847649461606,
            -0.029636983099842085,
            1.3766699674809417,
            1.0581513265179012,
            1.0253648683863625,
            -0.5520795703816028,
            1.6194179152479187,
            -1.404333080488219,
            -3.789962303540703,
            0.3656703238330186,
            0.5602489045957589,
            1.5198544655687056,
            -0.4333940502058717,
            -0.7303594694528187,
            -1.5865950139766507,
            1.1350745793219446,
            -1.7754238441040335,
            0.3447910414943334,
            0.2507602175431542,
            -0.5687473359811038,
            0.5584994962686008,
            0.5945938404465707,
            0.6225728762758422,
            0.9672985662579763,
            2.291854165799681,
            0.38536371240843215,
            -0.5828739137527617,
            -1.2284688374698518,
            -0.139098107163837,
            8.478898311404418,
            8.868133025042892,
            -0.09452331023953396,
            1.251489207324012,
            5.461649545693546,
            42.19034332987092,
            5.947868046525112,
            -1.4525817664596496,
            -0.3786127517996087,
            2.749473146677511,
            9.363282163394802,
            11.372110364100127,
            -2.386662510066004,
            0.7679751195486414,
            0.8175812472794862,
            -0.2725675480309762,
            -0.32738840051835366,
            -0.48129388219251157,
            0.9799565771426453,
            1.0944119497868028,
            0.42486332272059396,
            1.5626883941064564,
            0.5823241678070649,
            2.0755246235602116,
            0.9350860453760048,
            2.0473220989420278,
            3.766287233565945,
            0.2664198531401911,
            -0.0739133681178591,
            2.2131196436992435,
            -7.684061867255111,
            65.58545055527247,
            -0.3943583809752108,
            -1.1461972644611365,
            1.5930542773204586,
            4.026485897660779,
            6.352726266645959,
            0.6874419420668576,
            7.454562029886902,
            -2.0042679134295125,
            10.336189592315959,
            0.3916769532855574,
            0.8155276765992855,
            0.4075879050211885,
            21.05420786335501,
            -2.368698755784939,
            -0.1718615972033487,
            35.18561041599821,
            0.2259776633871171,
            0.36073811928482924,
            0.8545378186457022,
            3.328052432325378,
            -1.823630840799912,
            0.6814385632448668,
            -0.14449598603238595,
            -1.2593462157737196,
            1.3016393695037518,
            0.34216160853804967,
            1.9283770317172038,
            1.3536020583203268,
            -0.7131340287561948,
            1.7858600721223699,
            -1.4426420405374651,
            0.16723827065547134,
            0.5550975331692733,
            0.08722716363572176,
            1.6273988811587607,
            0.5566786087976278,
            0.5554316598187907,
            1.5261340281703257,
            -1.772412599327554,
            -0.24963690398659155,
            -1.0111341655097892,
            -0.22380692877060526,
            -0.7702469278357232,
            54.37283328766712,
            0.6005540284827543,
            0.8340234889390368,
            1.521852521418676,
            0.4307564948769622,
            -0.20275970629401174,
            0.22710584902738115,
            0.10181692664412834,
            0.7932049841104852,
            0.4690463785675134,
            -0.3202587571591864,
            1.2373170735063022,
            -5.022852944682158,
            5.056829026791187,
            2.0013502596739907,
            0.5939666172858495,
            1.5490477436918078,
            -3.899747879030334,
            -1.4692352869701555,
            5.35127363901036,
            -1.1671011904177606,
            -0.49199623077006316,
            12.650345686540865,
            -3.056597783613799,
            -3.705785683691905,
            -3.4982495833049134E-4,
            1.0194069553747105,
            -4.7238601772032265,
            -2.683774848894804,
            13.403064940028239,
            -0.5073334981086981,
            0.5584898297274759,
            -1.9670724904481172,
